{"learner":{"attributes":{"scikit_learn":"{\"_estimator_type\": \"classifier\"}"},"feature_names":["LearningDevelopment","AppreciatedAtWork","Voice","WorkEnvironment","Engagement","SupportiveGM","Merit"],"feature_types":["float","float","float","float","float","float","int"],"gradient_booster":{"model":{"gbtree_model_param":{"num_parallel_tree":"1","num_trees":"200"},"iteration_indptr":[0,1,2,3,4,5,6,7,8,9,10,11,12,13,14,15,16,17,18,19,20,21,22,23,24,25,26,27,28,29,30,31,32,33,34,35,36,37,38,39,40,41,42,43,44,45,46,47,48,49,50,51,52,53,54,55,56,57,58,59,60,61,62,63,64,65,66,67,68,69,70,71,72,73,74,75,76,77,78,79,80,81,82,83,84,85,86,87,88,89,90,91,92,93,94,95,96,97,98,99,100,101,102,103,104,105,106,107,108,109,110,111,112,113,114,115,116,117,118,119,120,121,122,123,124,125,126,127,128,129,130,131,132,133,134,135,136,137,138,139,140,141,142,143,144,145,146,147,148,149,150,151,152,153,154,155,156,157,158,159,160,161,162,163,164,165,166,167,168,169,170,171,172,173,174,175,176,177,178,179,180,181,182,183,184,185,186,187,188,189,190,191,192,193,194,195,196,197,198,199,200],"tree_info":[0,0,0,0,0,0,0,0,0,0,0,0,0,0,0,0,0,0,0,0,0,0,0,0,0,0,0,0,0,0,0,0,0,0,0,0,0,0,0,0,0,0,0,0,0,0,0,0,0,0,0,0,0,0,0,0,0,0,0,0,0,0,0,0,0,0,0,0,0,0,0,0,0,0,0,0,0,0,0,0,0,0,0,0,0,0,0,0,0,0,0,0,0,0,0,0,0,0,0,0,0,0,0,0,0,0,0,0,0,0,0,0,0,0,0,0,0,0,0,0,0,0,0,0,0,0,0,0,0,0,0,0,0,0,0,0,0,0,0,0,0,0,0,0,0,0,0,0,0,0,0,0,0,0,0,0,0,0,0,0,0,0,0,0,0,0,0,0,0,0,0,0,0,0,0,0,0,0,0,0,0,0,0,0,0,0,0,0,0,0,0,0,0,0,0,0,0,0,0,0],"trees":[{"base_weights":[1.4239927E-2,1.1067538E0,-1.3727812E0,1.5407764E0,4.0234774E-2,-3.844518E-1,-1.6724645E0,1.7089196E0,9.0058094E-1,6.322744E-1,-5.827497E-1,4.3412796E-1,-7.161483E-1,-1.0284E0,-9.077037E-2,8.822971E-2,5.2840825E-2,5.220888E-2,-0E0,4.3566726E-2,-0E0,-0E0,-3.079865E-2,3.666626E-2,-1.8246435E-2,-1.3922379E-2,-5.17585E-2,-9.10046E-3,-5.5456307E-2],"categories":[],"categories_nodes":[],"categories_segments":[],"categories_sizes":[],"default_left":[0,0,0,0,0,0,0,0,0,0,0,0,0,0,0,0,0,0,0,0,0,0,0,0,0,0,0,0,0],"id":0,"left_children":[1,3,5,7,9,11,13,15,17,19,21,23,25,27,-1,-1,-1,-1,-1,-1,-1,-1,-1,-1,-1,-1,-1,-1,-1],"loss_changes":[2.1830454E3,3.7024548E2,1.8282458E2,5.426648E1,8.768803E1,4.1950806E1,4.137915E1,1.2328857E1,1.607222E1,2.0131863E1,3.1960907E0,1.15680485E1,1.2608719E1,4.892975E0,0E0,0E0,0E0,0E0,0E0,0E0,0E0,0E0,0E0,0E0,0E0,0E0,0E0,0E0,0E0],"parents":[2147483647,0,0,1,1,2,2,3,3,4,4,5,5,6,6,7,7,8,8,9,9,10,10,11,11,12,12,13,13],"right_children":[2,4,6,8,10,12,14,16,18,20,22,24,26,28,-1,-1,-1,-1,-1,-1,-1,-1,-1,-1,-1,-1,-1,-1,-1],"split_conditions":[5E0,4.9745083E0,5E0,4.5E0,4.6666665E0,4.0520296E0,5E0,4.3333335E0,4.712989E0,4.0738187E0,3E0,4.3370075E0,4.750022E0,4.015202E0,-9.077037E-2,8.822971E-2,5.2840825E-2,5.220888E-2,-0E0,4.3566726E-2,-0E0,-0E0,-3.079865E-2,3.666626E-2,-1.8246435E-2,-1.3922379E-2,-5.17585E-2,-9.10046E-3,-5.5456307E-2],"split_indices":[5,4,3,4,3,4,6,5,3,5,6,3,1,4,0,0,0,0,0,0,0,0,0,0,0,0,0,0,0],"split_type":[0,0,0,0,0,0,0,0,0,0,0,0,0,0,0,0,0,0,0,0,0,0,0,0,0,0,0,0,0],"sum_hessian":[1.43825E3,8.055E2,6.3275E2,5.7075E2,2.3475E2,1.495E2,4.8325E2,4.4775E2,1.23E2,1.22E2,1.1275E2,4.125E1,1.0825E2,1.0025E2,3.83E2,3.98E2,4.975E1,1.04E2,1.9E1,8.85E1,3.35E1,5.5E0,1.0725E2,3.175E1,9.5E0,5.025E1,5.8E1,1.225E1,8.8E1],"tree_param":{"num_deleted":"0","num_feature":"7","num_nodes":"29","size_leaf_vector":"1"}},{"base_weights":[8.415127E-3,1.168944E0,-1.1331987E0,1.6274717E0,4.077352E-1,-3.618566E-1,-1.5788486E0,1.6675315E0,8.7813E-1,6.592602E-1,-7.655036E-2,2.0336667E-1,-7.199708E-1,-3.7865582E-1,-1.6433939E0,8.4383935E-2,4.5477238E-2,-0E0,4.7184538E-2,3.6007777E-2,-1.0289921E-2,2.5079414E-2,-1.6534086E-2,1.8146247E-2,-1.8455504E-2,1.0248809E-2,-3.914563E-2,8.008853E-3,-3.538605E-2,-5.6996573E-2,-8.558945E-2],"categories":[],"categories_nodes":[],"categories_segments":[],"categories_sizes":[],"default_left":[0,0,0,0,0,0,0,0,0,0,0,0,0,0,0,0,0,0,0,0,0,0,0,0,0,0,0,0,0,0,0],"id":1,"left_children":[1,3,5,7,9,11,13,15,17,19,21,23,25,27,29,-1,-1,-1,-1,-1,-1,-1,-1,-1,-1,-1,-1,-1,-1,-1,-1],"loss_changes":[1.918659E3,2.459729E2,2.459831E2,6.317383E0,3.457859E1,5.5969852E1,3.0748901E1,3.710083E0,1.0862713E0,1.1924576E1,1.3676708E1,9.900981E0,1.2276268E1,6.1244383E0,9.472656E0,0E0,0E0,0E0,0E0,0E0,0E0,0E0,0E0,0E0,0E0,0E0,0E0,0E0,0E0,0E0,0E0],"parents":[2147483647,0,0,1,1,2,2,3,3,4,4,5,5,6,6,7,7,8,8,9,9,10,10,11,11,12,12,13,13,14,14],"right_children":[2,4,6,8,10,12,14,16,18,20,22,24,26,28,30,-1,-1,-1,-1,-1,-1,-1,-1,-1,-1,-1,-1,-1,-1,-1,-1],"split_conditions":[4.6666665E0,4.5E0,5E0,4.6511726E0,4.32918E0,4.750022E0,4.506278E0,5E0,3.0155332E0,4.752051E0,5E0,5E0,3E0,4.0520296E0,5E0,8.4383935E-2,4.5477238E-2,-0E0,4.7184538E-2,3.6007777E-2,-1.0289921E-2,2.5079414E-2,-1.6534086E-2,1.8146247E-2,-1.8455504E-2,1.0248809E-2,-3.914563E-2,8.008853E-3,-3.538605E-2,-5.6996573E-2,-8.558945E-2],"split_indices":[3,4,0,0,3,4,4,1,1,0,4,6,6,1,6,0,0,0,0,0,0,0,0,0,0,0,0,0,0,0,0],"split_type":[0,0,0,0,0,0,0,0,0,0,0,0,0,0,0,0,0,0,0,0,0,0,0,0,0,0,0,0,0,0,0],"sum_hessian":[1.4453982E3,7.176138E2,7.277844E2,4.4523734E2,2.723764E2,2.6905573E2,4.587287E2,4.1852255E2,2.6714777E1,1.816626E2,9.071381E1,1.0241519E2,1.6664055E2,2.5470379E1,4.3325833E2,3.9555566E2,2.2966892E1,2.9955056E0,2.3719273E1,1.709181E2,1.0744489E1,2.4986639E1,6.572717E1,8.293587E1,1.9479324E1,9.496697E0,1.5714384E2,7.742029E0,1.772835E1,6.920697E1,3.6405136E2],"tree_param":{"num_deleted":"0","num_feature":"7","num_nodes":"31","size_leaf_vector":"1"}},{"base_weights":[1.617516E-2,1.0442537E0,-1.2624125E0,1.3435498E0,1.604632E-2,-2.1903767E-1,-1.5195286E0,1.4804698E0,5.079802E-1,2.3401693E-1,-3.8124308E-1,1.1865999E-1,-8.4421206E-1,-1.0036786E0,-1.6537031E0,7.687555E-2,4.8560772E-2,3.2904178E-2,-0E0,2.5443986E-2,-1.9496037E-3,-0E0,-2.5833115E-2,2.220744E-2,-5.4032216E-3,-0E0,-4.466007E-2,-0E0,-5.3905945E-2,-4.9782265E-2,-8.453694E-2],"categories":[],"categories_nodes":[],"categories_segments":[],"categories_sizes":[],"default_left":[0,0,0,0,0,0,0,0,0,0,0,0,0,0,0,0,0,0,0,0,0,0,0,0,0,0,0,0,0,0,0],"id":2,"left_children":[1,3,5,7,9,11,13,15,17,19,21,23,25,27,29,-1,-1,-1,-1,-1,-1,-1,-1,-1,-1,-1,-1,-1,-1,-1,-1],"loss_changes":[1.9112067E3,2.4558643E2,1.6972302E2,6.633032E1,1.5832579E1,2.9267776E1,2.8243896E1,1.17404785E1,7.005415E0,1.040372E1,3.384303E0,7.0642805E0,1.5480194E0,1.1656059E1,5.961792E0,0E0,0E0,0E0,0E0,0E0,0E0,0E0,0E0,0E0,0E0,0E0,0E0,0E0,0E0,0E0,0E0],"parents":[2147483647,0,0,1,1,2,2,3,3,4,4,5,5,6,6,7,7,8,8,9,9,10,10,11,11,12,12,13,13,14,14],"right_children":[2,4,6,8,10,12,14,16,18,20,22,24,26,28,30,-1,-1,-1,-1,-1,-1,-1,-1,-1,-1,-1,-1,-1,-1,-1,-1],"split_conditions":[5E0,4.6666665E0,4.842031E0,4.3333335E0,5E0,5E0,5E0,4.9280257E0,4.5798063E0,4.225773E0,4.669233E0,4.246211E0,3E0,4.007175E0,4.669233E0,7.687555E-2,4.8560772E-2,3.2904178E-2,-0E0,2.5443986E-2,-1.9496037E-3,-0E0,-2.5833115E-2,2.220744E-2,-5.4032216E-3,-0E0,-4.466007E-2,-0E0,-5.3905945E-2,-4.9782265E-2,-8.453694E-2],"split_indices":[5,3,1,5,6,3,6,1,2,5,3,3,6,3,3,0,0,0,0,0,0,0,0,0,0,0,0,0,0,0,0],"split_type":[0,0,0,0,0,0,0,0,0,0,0,0,0,0,0,0,0,0,0,0,0,0,0,0,0,0,0,0,0,0,0],"sum_hessian":[1.4515542E3,8.056037E2,6.4595044E2,6.221434E2,1.8346036E2,1.2974623E2,5.1620416E2,5.3158856E2,9.055479E1,1.2207779E2,6.1382557E1,8.288224E1,4.6863995E1,1.1201669E2,4.041875E2,4.5975085E2,7.1837746E1,6.833251E1,2.222227E1,6.3397247E1,5.8680542E1,1.672798E1,4.465458E1,3.692195E1,4.596029E1,3.9972885E0,4.2866707E1,6.994331E0,1.0502236E2,3.494233E1,3.6924515E2],"tree_param":{"num_deleted":"0","num_feature":"7","num_nodes":"31","size_leaf_vector":"1"}},{"base_weights":[-0E0,9.714769E-1,-1.2186329E0,1.3673229E0,5.3535547E-2,-1.0672638E-1,-1.4477004E0,1.5045211E0,8.352801E-1,3.7907442E-1,-4.178775E-1,2.4141128E-1,-4.4157764E-1,-4.6936568E-2,-1.5957886E0,7.633808E-2,3.6206733E-2,5.064621E-2,1.5559635E-2,-0E0,3.1144146E-2,-0E0,-2.8286614E-2,2.9281868E-2,1.1972281E-3,2.1149605E-3,-3.0008066E-2,-3.6783344E-3,-7.957212E-2],"categories":[],"categories_nodes":[],"categories_segments":[],"categories_sizes":[],"default_left":[0,0,0,0,0,0,0,0,0,0,0,0,0,0,0,0,0,0,0,0,0,0,0,0,0,0,0,0,0],"id":3,"left_children":[1,3,5,7,9,11,13,15,17,19,21,23,25,-1,27,-1,-1,-1,-1,-1,-1,-1,-1,-1,-1,-1,-1,-1,-1],"loss_changes":[1.7165632E3,2.9040485E2,1.604112E2,3.4664917E1,3.7918896E1,1.3692332E1,3.2248413E1,6.201538E0,8.701653E0,1.3974432E1,6.2136097E0,2.792702E0,5.9951277E0,0E0,2.545166E0,0E0,0E0,0E0,0E0,0E0,0E0,0E0,0E0,0E0,0E0,0E0,0E0,0E0,0E0],"parents":[2147483647,0,0,1,1,2,2,3,3,4,4,5,5,6,6,7,7,8,8,9,9,10,10,11,11,12,12,14,14],"right_children":[2,4,6,8,10,12,14,16,18,20,22,24,26,-1,28,-1,-1,-1,-1,-1,-1,-1,-1,-1,-1,-1,-1,-1,-1],"split_conditions":[5E0,4.9745083E0,4.750022E0,4.5E0,4.225773E0,4.007175E0,4.971869E0,5E0,4.28017E0,3.6754036E0,4.007175E0,3.6394608E0,4E0,-4.6936568E-2,3E0,7.633808E-2,3.6206733E-2,5.064621E-2,1.5559635E-2,-0E0,3.1144146E-2,-0E0,-2.8286614E-2,2.9281868E-2,1.1972281E-3,2.1149605E-3,-3.0008066E-2,-3.6783344E-3,-7.957212E-2],"split_indices":[5,4,4,4,5,0,0,6,5,5,0,2,6,0,6,0,0,0,0,0,0,0,0,0,0,0,0,0,0],"split_type":[0,0,0,0,0,0,0,0,0,0,0,0,0,0,0,0,0,0,0,0,0,0,0,0,0,0,0,0,0],"sum_hessian":[1.4474147E3,8.0594464E2,6.4147003E2,5.611235E2,2.4482118E2,1.1141003E2,5.3006E2,4.4111917E2,1.2000428E2,1.4748425E2,9.733692E1,5.1879692E1,5.9530334E1,1.2639346E2,4.0366653E2,4.1782648E2,2.3292694E1,8.4572975E1,3.5431305E1,5.930536E1,8.81789E1,2.6724667E1,7.061226E1,1.5460281E1,3.641941E1,1.2225681E1,4.7304653E1,3.9760349E0,3.9969052E2],"tree_param":{"num_deleted":"0","num_feature":"7","num_nodes":"29","size_leaf_vector":"1"}},{"base_weights":[-6.635729E-3,1.0363582E0,-1.0177468E0,1.429056E0,3.7936643E-1,-1.09149925E-1,-1.3411891E0,7.629792E-2,8.591565E-1,8.453161E-1,-2.6529062E-1,5.7015365E-1,-5.3548396E-1,-7.8771496E-1,-1.5276383E0,4.6005446E-2,9.260409E-3,9.7702965E-3,4.442321E-2,-0E0,-2.7416745E-2,5.3365804E-2,1.9760538E-2,8.222247E-3,-2.9720128E-2,-0E0,-4.2541806E-2,-4.0877506E-2,-7.7140436E-2],"categories":[],"categories_nodes":[],"categories_segments":[],"categories_sizes":[],"default_left":[0,0,0,0,0,0,0,0,0,0,0,0,0,0,0,0,0,0,0,0,0,0,0,0,0,0,0,0,0],"id":4,"left_children":[1,3,5,7,9,11,13,-1,15,17,19,21,23,25,27,-1,-1,-1,-1,-1,-1,-1,-1,-1,-1,-1,-1,-1,-1],"loss_changes":[1.4999467E3,1.760279E2,2.094273E2,2.0807068E1,8.116417E1,5.6231026E1,4.858441E1,0E0,1.0996323E0,2.7403717E0,8.177563E0,2.82592E0,6.456604E0,8.517464E0,1.4853516E0,0E0,0E0,0E0,0E0,0E0,0E0,0E0,0E0,0E0,0E0,0E0,0E0,0E0,0E0],"parents":[2147483647,0,0,1,1,2,2,3,3,4,4,5,5,6,6,8,8,9,9,10,10,11,11,12,12,13,13,14,14],"right_children":[2,4,6,8,10,12,14,-1,16,18,20,22,24,26,28,-1,-1,-1,-1,-1,-1,-1,-1,-1,-1,-1,-1,-1,-1],"split_conditions":[4.6666665E0,4.5E0,4.9280257E0,4.3333335E0,4.0738187E0,4.9745083E0,5E0,7.629792E-2,5E0,2.7986035E0,4.6299157E0,3.3457174E0,3E0,3E0,4.669233E0,4.6005446E-2,9.260409E-3,9.7702965E-3,4.442321E-2,-0E0,-2.7416745E-2,5.3365804E-2,1.9760538E-2,8.222247E-3,-2.9720128E-2,-0E0,-4.2541806E-2,-4.0877506E-2,-7.7140436E-2],"split_indices":[3,4,5,5,5,4,6,0,6,5,1,5,6,6,3,0,0,0,0,0,0,0,0,0,0,0,0,0,0],"split_type":[0,0,0,0,0,0,0,0,0,0,0,0,0,0,0,0,0,0,0,0,0,0,0,0,0,0,0,0,0],"sum_hessian":[1.4196196E3,6.9780206E2,7.218176E2,4.338397E2,2.6396237E2,1.915982E2,5.302194E2,3.5849326E2,7.5346436E1,1.5477258E2,1.0918978E2,7.1893936E1,1.1970428E2,1.3810605E2,3.9211334E2,6.515022E1,1.0196211E1,1.4648798E1,1.401238E2,5.8412598E1,5.0777187E1,1.3403391E1,5.8490543E1,7.2472353E0,1.1245704E2,1.047145E1,1.276346E2,1.9826942E1,3.722864E2],"tree_param":{"num_deleted":"0","num_feature":"7","num_nodes":"29","size_leaf_vector":"1"}},{"base_weights":[-9.818371E-3,9.708102E-1,-9.9296635E-1,1.2134396E0,-4.0631093E-2,8.152912E-2,-1.2649623E0,1.431003E0,7.123592E-1,4.3326718E-1,-3.761142E-1,3.4307867E-1,-4.50213E-1,-6.1675763E-1,-1.417221E0,7.27308E-2,4.110837E-2,4.1342404E-2,-6.0016377E-5,2.981637E-2,-0E0,-0E0,-2.694262E-2,2.2818366E-2,-4.889918E-3,-0E0,-2.6807528E-2,-1.2266078E-2,-4.142975E-2,-4.9083572E-2,-7.512895E-2],"categories":[],"categories_nodes":[],"categories_segments":[],"categories_sizes":[],"default_left":[0,0,0,0,0,0,0,0,0,0,0,0,0,0,0,0,0,0,0,0,0,0,0,0,0,0,0,0,0,0,0],"id":5,"left_children":[1,3,5,7,9,11,13,15,17,19,21,23,25,27,29,-1,-1,-1,-1,-1,-1,-1,-1,-1,-1,-1,-1,-1,-1,-1,-1],"loss_changes":[1.3798445E3,1.7799902E2,2.1167139E2,5.741107E1,2.2072437E1,2.007446E1,5.126013E1,2.5336304E0,1.738034E1,3.8084078E0,4.4048643E0,5.973111E0,2.2078695E0,6.7663803E0,1.23359375E1,0E0,0E0,0E0,0E0,0E0,0E0,0E0,0E0,0E0,0E0,0E0,0E0,0E0,0E0,0E0,0E0],"parents":[2147483647,0,0,1,1,2,2,3,3,4,4,5,5,6,6,7,7,8,8,9,9,10,10,11,11,12,12,13,13,14,14],"right_children":[2,4,6,8,10,12,14,16,18,20,22,24,26,28,30,-1,-1,-1,-1,-1,-1,-1,-1,-1,-1,-1,-1,-1,-1,-1,-1],"split_conditions":[4.612139E0,4.662872E0,5E0,4.5E0,4.712644E0,4.835221E0,4.9156065E0,5E0,4.28017E0,4.013952E0,4.669233E0,5E0,4.669233E0,4.9345527E0,5E0,7.27308E-2,4.110837E-2,4.1342404E-2,-6.0016377E-5,2.981637E-2,-0E0,-0E0,-2.694262E-2,2.2818366E-2,-4.889918E-3,-0E0,-2.6807528E-2,-1.2266078E-2,-4.142975E-2,-4.9083572E-2,-7.512895E-2],"split_indices":[5,3,4,4,4,3,3,1,5,2,3,6,5,1,6,0,0,0,0,0,0,0,0,0,0,0,0,0,0,0,0],"split_type":[0,0,0,0,0,0,0,0,0,0,0,0,0,0,0,0,0,0,0,0,0,0,0,0,0,0,0,0,0,0,0],"sum_hessian":[1.4284469E3,7.141299E2,7.14317E2,5.773398E2,1.3679013E2,1.4300214E2,5.713149E2,3.9800677E2,1.79333E2,5.406275E1,8.272738E1,9.869967E1,4.4302467E1,1.1248078E2,4.588341E2,3.702012E2,2.7805578E1,1.5537112E2,2.3961859E1,3.7901253E1,1.6161499E1,2.8940592E1,5.378679E1,8.1513855E1,1.7185818E1,6.4874077E0,3.781506E1,4.6383392E1,6.60974E1,9.2852684E1,3.659814E2],"tree_param":{"num_deleted":"0","num_feature":"7","num_nodes":"31","size_leaf_vector":"1"}},{"base_weights":[2.027476E-4,9.7009254E-1,-9.396347E-1,1.2440423E0,1.0110621E-1,-7.4179105E-2,-1.250547E0,6.952056E-2,6.2338454E-1,4.3420812E-1,-7.667037E-1,4.343084E-1,-4.0832278E-1,-7.385894E-1,-1.4278097E0,4.3107573E-2,2.9435896E-3,2.7971797E-2,-0E0,-0E0,-4.3771487E-2,2.8544249E-2,-3.6427623E-4,-5.524131E-3,-3.1741746E-2,-1.9597298E-2,-4.5289654E-2,-3.5820253E-2,-7.207757E-2],"categories":[],"categories_nodes":[],"categories_segments":[],"categories_sizes":[],"default_left":[0,0,0,0,0,0,0,0,0,0,0,0,0,0,0,0,0,0,0,0,0,0,0,0,0,0,0,0,0],"id":6,"left_children":[1,3,5,7,9,11,13,-1,15,17,19,21,23,25,27,-1,-1,-1,-1,-1,-1,-1,-1,-1,-1,-1,-1,-1,-1],"loss_changes":[1.2728397E3,1.6097223E2,1.877569E2,4.6131836E1,4.8408043E1,3.2522892E1,4.1342346E1,0E0,1.3531216E1,6.265501E0,3.690527E0,5.757427E0,6.525362E0,5.2639847E0,1.3607788E0,0E0,0E0,0E0,0E0,0E0,0E0,0E0,0E0,0E0,0E0,0E0,0E0,0E0,0E0],"parents":[2147483647,0,0,1,1,2,2,3,3,4,4,5,5,6,6,8,8,9,9,10,10,11,11,12,12,13,13,14,14],"right_children":[2,4,6,8,10,12,14,-1,16,18,20,22,24,26,28,-1,-1,-1,-1,-1,-1,-1,-1,-1,-1,-1,-1,-1,-1],"split_conditions":[4.6666665E0,4.9322395E0,4.9280257E0,4.3333335E0,5E0,4.9745083E0,5E0,6.952056E-2,4.4836383E0,4.0738187E0,3.0155332E0,5E0,4.225773E0,4.842031E0,4.669233E0,4.3107573E-2,2.9435896E-3,2.7971797E-2,-0E0,-0E0,-4.3771487E-2,2.8544249E-2,-3.6427623E-4,-5.524131E-3,-3.1741746E-2,-1.9597298E-2,-4.5289654E-2,-3.5820253E-2,-7.207757E-2],"split_indices":[3,4,5,5,5,4,6,0,4,5,2,6,5,1,3,0,0,0,0,0,0,0,0,0,0,0,0,0,0],"split_type":[0,0,0,0,0,0,0,0,0,0,0,0,0,0,0,0,0,0,0,0,0,0,0,0,0,0,0,0,0],"sum_hessian":[1.3935686E3,6.8684503E2,7.067236E2,5.20018E2,1.6682706E2,1.8893275E2,5.1779083E2,4.1015613E2,1.0986189E2,1.2271149E2,4.4115566E1,7.238522E1,1.1654754E2,1.3788678E2,3.7990405E2,7.347036E1,3.6391533E1,9.1732574E1,3.0978907E1,6.4785323E0,3.7637035E1,5.7920147E1,1.4465074E1,5.5815563E1,6.0731976E1,5.1979115E1,8.590767E1,1.7941912E1,3.6196213E2],"tree_param":{"num_deleted":"0","num_feature":"7","num_nodes":"29","size_leaf_vector":"1"}},{"base_weights":[-6.096448E-3,8.1590956E-1,-1.0513163E0,1.1765033E0,1.8753361E-2,-1.1775601E-1,-1.2412964E0,1.2460198E0,1.3910998E-1,6.080543E-1,-3.0443898E-1,5.334557E-1,-4.0094188E-1,-7.866696E-1,-1.3722111E0,6.592495E-2,3.3349164E-2,2.146789E-2,-2.550537E-3,3.3608668E-2,-0E0,1.0193517E-3,-2.1254228E-2,3.812687E-2,-0E0,-4.0436257E-3,-3.4195542E-2,-1.0020575E-2,-4.178805E-2,-3.1902514E-2,-6.917281E-2],"categories":[],"categories_nodes":[],"categories_segments":[],"categories_sizes":[],"default_left":[0,0,0,0,0,0,0,0,0,0,0,0,0,0,0,0,0,0,0,0,0,0,0,0,0,0,0,0,0,0,0],"id":7,"left_children":[1,3,5,7,9,11,13,15,17,19,21,23,25,27,29,-1,-1,-1,-1,-1,-1,-1,-1,-1,-1,-1,-1,-1,-1,-1,-1],"loss_changes":[1.2016583E3,2.2223071E2,1.06430115E2,3.567395E1,4.7813377E1,1.9858217E1,2.4585083E1,1.894397E1,2.8690193E0,4.7809563E0,7.215781E0,4.2200937E0,5.56804E0,1.6661758E0,1.4122314E0,0E0,0E0,0E0,0E0,0E0,0E0,0E0,0E0,0E0,0E0,0E0,0E0,0E0,0E0,0E0,0E0],"parents":[2147483647,0,0,1,1,2,2,3,3,4,4,5,5,6,6,7,7,8,8,9,9,10,10,11,11,12,12,13,13,14,14],"right_children":[2,4,6,8,10,12,14,16,18,20,22,24,26,28,30,-1,-1,-1,-1,-1,-1,-1,-1,-1,-1,-1,-1,-1,-1,-1,-1],"split_conditions":[5E0,4.9745083E0,5E0,4.831414E0,4.32918E0,4.246211E0,4.7489467E0,4.3333335E0,4.015202E0,4.450874E0,4.6666665E0,4.015202E0,4.0520296E0,4.007175E0,4.0520296E0,6.592495E-2,3.3349164E-2,2.146789E-2,-2.550537E-3,3.3608668E-2,-0E0,1.0193517E-3,-2.1254228E-2,3.812687E-2,-0E0,-4.0436257E-3,-3.4195542E-2,-1.0020575E-2,-4.178805E-2,-3.1902514E-2,-6.917281E-2],"split_indices":[5,4,4,3,3,3,0,5,4,5,3,4,1,3,1,0,0,0,0,0,0,0,0,0,0,0,0,0,0,0,0],"split_type":[0,0,0,0,0,0,0,0,0,0,0,0,0,0,0,0,0,0,0,0,0,0,0,0,0,0,0,0,0,0,0],"sum_hessian":[1.3953414E3,7.8016876E2,6.151726E2,5.350023E2,2.4516647E2,1.06173645E2,5.0899896E2,4.9933893E2,3.5663357E1,8.8600464E1,1.5656601E2,2.9672024E1,7.6501625E1,1.1935475E2,3.8964423E2,4.3073425E2,6.860469E1,1.7467379E1,1.8195978E1,8.1355255E1,7.2452116E0,3.9213306E1,1.1735271E2,2.068797E1,8.984054E0,4.0465405E1,3.603622E1,1.4199034E1,1.05155716E2,1.6087864E1,3.7355637E2],"tree_param":{"num_deleted":"0","num_feature":"7","num_nodes":"31","size_leaf_vector":"1"}},{"base_weights":[7.5295684E-3,7.51671E-1,-1.0449736E0,1.2059782E0,1.9748673E-1,-4.8849928E-1,-1.2816311E0,1.3259917E0,6.661908E-1,5.012003E-1,-7.4972115E-2,1.7470069E-1,-6.1507547E-1,-8.468884E-3,-1.3007175E0,6.74855E-2,2.9541051E-2,4.083228E-2,1.4234807E-2,2.8850535E-2,-2.4144942E-2,1.8212048E-2,-1.2652593E-2,-0E0,2.9880079E-2,7.6058763E-3,-3.219107E-2,-0E0,-6.481662E-2],"categories":[],"categories_nodes":[],"categories_segments":[],"categories_sizes":[],"default_left":[0,0,0,0,0,0,0,0,0,0,0,0,0,0,0,0,0,0,0,0,0,0,0,0,0,0,0,0,0],"id":8,"left_children":[1,3,5,7,9,11,13,15,17,19,21,23,25,-1,27,-1,-1,-1,-1,-1,-1,-1,-1,-1,-1,-1,-1,-1,-1],"loss_changes":[1.0874662E3,2.020437E2,7.123529E1,2.3675415E1,3.1581161E1,1.5808659E1,5.224365E0,4.374939E0,2.644474E0,1.4896473E1,1.5314146E1,2.1863096E0,5.1223984E0,0E0,2.380005E0,0E0,0E0,0E0,0E0,0E0,0E0,0E0,0E0,0E0,0E0,0E0,0E0,0E0,0E0],"parents":[2147483647,0,0,1,1,2,2,3,3,4,4,5,5,6,6,7,7,8,8,9,9,10,10,11,11,12,12,14,14],"right_children":[2,4,6,8,10,12,14,16,18,20,22,24,26,-1,28,-1,-1,-1,-1,-1,-1,-1,-1,-1,-1,-1,-1,-1,-1],"split_conditions":[5E0,4.5E0,5E0,4.3333335E0,4.32918E0,4.015202E0,4.015202E0,4.955448E0,4.662872E0,4.752051E0,5E0,4.3672986E0,2E0,-8.468884E-3,3.6718445E0,6.74855E-2,2.9541051E-2,4.083228E-2,1.4234807E-2,2.8850535E-2,-2.4144942E-2,1.8212048E-2,-1.2652593E-2,-0E0,2.9880079E-2,7.6058763E-3,-3.219107E-2,-0E0,-6.481662E-2],"split_indices":[3,4,6,3,3,4,4,1,3,0,4,0,6,0,0,0,0,0,0,0,0,0,0,0,0,0,0,0,0],"split_type":[0,0,0,0,0,0,0,0,0,0,0,0,0,0,0,0,0,0,0,0,0,0,0,0,0,0,0,0,0],"sum_hessian":[1.3864878E3,8.1356836E2,5.7291943E2,4.442057E2,3.693627E2,1.747186E2,3.9820084E2,3.5875082E2,8.545486E1,1.7759283E2,1.9176987E2,2.5386381E1,1.4933221E2,8.726418E0,3.8947443E2,3.3826016E2,2.0490665E1,5.5481617E1,2.997324E1,1.665367E2,1.1056129E1,5.1907345E1,1.3986252E2,1.8490477E1,6.8959055E0,3.7205515E0,1.4561166E2,2.8851066E0,3.8658932E2],"tree_param":{"num_deleted":"0","num_feature":"7","num_nodes":"29","size_leaf_vector":"1"}},{"base_weights":[7.87395E-3,8.6147183E-1,-8.424143E-1,1.221007E0,3.1230563E-1,-2.6887763E-1,-1.1972635E0,1.2502022E0,5.210671E-1,5.165472E-1,-5.0741557E-2,2.6786092E-1,-5.842517E-1,-2.4608647E-2,-1.255889E0,6.418304E-2,4.2150483E-2,-0E0,3.552295E-2,3.2859117E-2,7.3782243E-3,8.534171E-3,-1.7675016E-2,2.7171953E-2,-0E0,-1.950817E-2,-4.139795E-2,-1.0859205E-2,-6.310032E-2],"categories":[],"categories_nodes":[],"categories_segments":[],"categories_sizes":[],"default_left":[0,0,0,0,0,0,0,0,0,0,0,0,0,0,0,0,0,0,0,0,0,0,0,0,0,0,0,0,0],"id":9,"left_children":[1,3,5,7,9,11,13,15,17,19,21,23,25,-1,27,-1,-1,-1,-1,-1,-1,-1,-1,-1,-1,-1,-1,-1,-1],"loss_changes":[9.868319E2,1.3060452E2,1.3501062E2,3.9075928E0,2.1205631E1,4.5501236E1,1.2795166E1,1.1699219E0,2.5246654E0,7.846092E0,6.9989243E0,6.7337093E0,5.179123E0,0E0,3.5098267E0,0E0,0E0,0E0,0E0,0E0,0E0,0E0,0E0,0E0,0E0,0E0,0E0,0E0,0E0],"parents":[2147483647,0,0,1,1,2,2,3,3,4,4,5,5,6,6,7,7,8,8,9,9,10,10,11,11,12,12,14,14],"right_children":[2,4,6,8,10,12,14,16,18,20,22,24,26,-1,28,-1,-1,-1,-1,-1,-1,-1,-1,-1,-1,-1,-1,-1,-1],"split_conditions":[4.6666665E0,4.5E0,5E0,5E0,4.32918E0,4.9745083E0,4.669233E0,4.328683E0,3.6728823E0,4.007175E0,5E0,5E0,4.971869E0,-2.4608647E-2,4.015202E0,6.418304E-2,4.2150483E-2,-0E0,3.552295E-2,3.2859117E-2,7.3782243E-3,8.534171E-3,-1.7675016E-2,2.7171953E-2,-0E0,-1.950817E-2,-4.139795E-2,-1.0859205E-2,-6.310032E-2],"split_indices":[3,4,6,6,3,4,3,3,3,0,2,3,0,0,4,0,0,0,0,0,0,0,0,0,0,0,0,0,0],"split_type":[0,0,0,0,0,0,0,0,0,0,0,0,0,0,0,0,0,0,0,0,0,0,0,0,0,0,0,0,0],"sum_hessian":[1.3568586E3,6.7827637E2,6.785822E2,4.0670123E2,2.7157516E2,2.624396E2,4.1614264E2,3.8664404E2,2.0057173E1,1.7695609E2,9.4619064E1,9.486007E1,1.6757953E2,3.5760555E1,3.8038208E2,3.4034424E2,4.6299824E1,5.187623E0,1.4869551E1,1.2186412E2,5.509197E1,5.129432E1,4.3324745E1,4.4001743E1,5.0858322E1,1.01782234E2,6.57973E1,8.471697E0,3.719104E2],"tree_param":{"num_deleted":"0","num_feature":"7","num_nodes":"29","size_leaf_vector":"1"}},{"base_weights":[-1.0783908E-2,7.353277E-1,-9.574923E-1,1.1883131E0,2.3834191E-1,-3.924997E-1,-1.2373477E0,1.2466066E0,5.198151E-1,6.4165944E-1,-5.1247515E-2,-7.90048E-2,-7.9760665E-1,-3.9912644E-1,-1.275967E0,6.3952066E-2,3.8353954E-2,4.4690177E-2,2.5764257E-3,3.9118677E-2,-0E0,6.7293695E-3,-1.4599116E-2,1.7234577E-2,-1.633529E-2,-0E0,-4.043253E-2,-0E0,-2.4386015E-2,-4.6155058E-2,-6.579293E-2],"categories":[],"categories_nodes":[],"categories_segments":[],"categories_sizes":[],"default_left":[0,0,0,0,0,0,0,0,0,0,0,0,0,0,0,0,0,0,0,0,0,0,0,0,0,0,0,0,0,0,0],"id":10,"left_children":[1,3,5,7,9,11,13,15,17,19,21,23,25,27,29,-1,-1,-1,-1,-1,-1,-1,-1,-1,-1,-1,-1,-1,-1,-1,-1],"loss_changes":[9.5147015E2,1.6601102E2,9.009357E1,1.0814697E1,4.3541153E1,2.3728983E1,8.730103E0,1.8817749E0,4.540268E0,1.3746899E1,9.896178E0,1.2718642E1,6.9397736E-1,4.7438335E-1,4.5593262E-1,0E0,0E0,0E0,0E0,0E0,0E0,0E0,0E0,0E0,0E0,0E0,0E0,0E0,0E0,0E0,0E0],"parents":[2147483647,0,0,1,1,2,2,3,3,4,4,5,5,6,6,7,7,8,8,9,9,10,10,11,11,12,12,13,13,14,14],"right_children":[2,4,6,8,10,12,14,16,18,20,22,24,26,28,30,-1,-1,-1,-1,-1,-1,-1,-1,-1,-1,-1,-1,-1,-1,-1,-1],"split_conditions":[4.981027E0,4.5E0,4.971869E0,4.662872E0,4.32918E0,4.934039E0,4.506278E0,4.3333335E0,4E0,4.28017E0,4.992253E0,4.015202E0,3.6728823E0,4.3370075E0,5E0,6.3952066E-2,3.8353954E-2,4.4690177E-2,2.5764257E-3,3.9118677E-2,-0E0,6.7293695E-3,-1.4599116E-2,1.7234577E-2,-1.633529E-2,-0E0,-4.043253E-2,-0E0,-2.4386015E-2,-4.6155058E-2,-6.579293E-2],"split_indices":[5,4,0,3,3,2,4,5,6,5,3,4,3,3,6,0,0,0,0,0,0,0,0,0,0,0,0,0,0,0,0],"split_type":[0,0,0,0,0,0,0,0,0,0,0,0,0,0,0,0,0,0,0,0,0,0,0,0,0,0,0,0,0,0,0],"sum_hessian":[1.3436705E3,7.5043567E2,5.9323486E2,3.8949893E2,3.609367E2,1.9996162E2,3.9327322E2,3.5442166E2,3.507727E1,1.53041E2,2.0789572E2,1.1642922E2,8.353241E1,2.0283167E1,3.7299005E2,3.183082E2,3.6113453E1,1.6260708E1,1.8816563E1,1.2272969E2,3.0311314E1,1.1324058E2,9.4655136E1,3.9927555E1,7.650166E1,2.7140687E0,8.081834E1,5.446095E0,1.4837071E1,5.7025314E1,3.1596475E2],"tree_param":{"num_deleted":"0","num_feature":"7","num_nodes":"31","size_leaf_vector":"1"}},{"base_weights":[-1.235939E-2,7.1891415E-1,-9.60149E-1,1.1501291E0,2.2284253E-1,-1.4064395E-1,-1.1423091E0,1.2111083E0,6.365207E-1,4.2839462E-1,-1.1715827E-1,3.5894398E-2,-4.833997E-1,-3.4445368E-2,-1.278908E0,6.173757E-2,3.1304333E-2,3.8554594E-2,-0E0,2.658888E-2,-7.0770336E-3,2.9589288E-4,-1.9747611E-2,1.56911E-2,-2.9498786E-3,-2.7206505E-3,-3.0185025E-2,-4.5132123E-2,-6.586419E-2],"categories":[],"categories_nodes":[],"categories_segments":[],"categories_sizes":[],"default_left":[0,0,0,0,0,0,0,0,0,0,0,0,0,0,0,0,0,0,0,0,0,0,0,0,0,0,0,0,0],"id":11,"left_children":[1,3,5,7,9,11,13,15,17,19,21,23,25,-1,27,-1,-1,-1,-1,-1,-1,-1,-1,-1,-1,-1,-1,-1,-1],"loss_changes":[9.21632E2,1.5713263E2,8.379993E1,7.725342E0,2.5303396E1,7.516161E0,2.369751E1,2.2191162E0,4.9391384E0,1.4691753E1,5.2945065E0,2.398453E0,8.3516216E-1,0E0,4.543457E-1,0E0,0E0,0E0,0E0,0E0,0E0,0E0,0E0,0E0,0E0,0E0,0E0,0E0,0E0],"parents":[2147483647,0,0,1,1,2,2,3,3,4,4,5,5,6,6,7,7,8,8,9,9,10,10,11,11,12,12,14,14],"right_children":[2,4,6,8,10,12,14,16,18,20,22,24,26,-1,28,-1,-1,-1,-1,-1,-1,-1,-1,-1,-1,-1,-1,-1,-1],"split_conditions":[4.981027E0,4.5E0,5E0,4.3333335E0,4.28017E0,4.9156065E0,4.971869E0,4.7166276E0,4.451546E0,4.7489467E0,5E0,3.9672763E0,4.0520296E0,-3.4445368E-2,5E0,6.173757E-2,3.1304333E-2,3.8554594E-2,-0E0,2.658888E-2,-7.0770336E-3,2.9589288E-4,-1.9747611E-2,1.56911E-2,-2.9498786E-3,-2.7206505E-3,-3.0185025E-2,-4.5132123E-2,-6.586419E-2],"split_indices":[5,4,4,5,5,2,0,1,0,0,6,2,1,0,6,0,0,0,0,0,0,0,0,0,0,0,0,0,0],"split_type":[0,0,0,0,0,0,0,0,0,0,0,0,0,0,0,0,0,0,0,0,0,0,0,0,0,0,0,0,0],"sum_hessian":[1.3263181E3,7.476685E2,5.7864954E2,3.968621E2,3.5080643E2,1.07667915E2,4.709816E2,3.4960767E2,4.7254433E1,2.2207541E2,1.2873103E2,6.802004E1,3.9647877E1,1.1555926E2,3.5542236E2,3.2514178E2,2.446587E1,3.9343002E1,7.9114294E0,1.897423E2,3.233311E1,8.552392E1,4.320711E1,2.1769804E1,4.6250237E1,1.3045194E1,2.6602682E1,5.0498352E1,3.04924E2],"tree_param":{"num_deleted":"0","num_feature":"7","num_nodes":"29","size_leaf_vector":"1"}},{"base_weights":[1.4950951E-2,8.02714E-1,-7.685681E-1,1.1461862E0,2.6997948E-1,-2.2056346E-1,-1.1282846E0,5.9700858E-2,7.1239096E-1,3.9790076E-1,-2.0058325E-1,1.4225267E-1,-4.6324524E-1,-2.9204345E-1,-5.8453638E-2,-0E0,3.6584225E-2,2.596199E-2,2.311468E-3,-0E0,-1.5602719E-2,2.7021267E-2,2.7245015E-4,5.1936577E-4,-2.5329033E-2,1.3629019E-2,-3.3143874E-2],"categories":[],"categories_nodes":[],"categories_segments":[],"categories_sizes":[],"default_left":[0,0,0,0,0,0,0,0,0,0,0,0,0,0,0,0,0,0,0,0,0,0,0,0,0,0,0],"id":12,"left_children":[1,3,5,7,9,11,13,-1,15,17,19,21,23,25,-1,-1,-1,-1,-1,-1,-1,-1,-1,-1,-1,-1,-1],"loss_changes":[8.0179944E2,1.1549335E2,1.25086365E2,4.936035E0,1.6061625E1,2.3753765E1,1.3283112E1,0E0,9.271221E-1,7.985691E0,1.8345819E0,4.5452995E0,4.642296E0,6.713556E0,0E0,0E0,0E0,0E0,0E0,0E0,0E0,0E0,0E0,0E0,0E0,0E0,0E0],"parents":[2147483647,0,0,1,1,2,2,3,3,4,4,5,5,6,6,8,8,9,9,10,10,11,11,12,12,13,13],"right_children":[2,4,6,8,10,12,14,-1,16,18,20,22,24,26,-1,-1,-1,-1,-1,-1,-1,-1,-1,-1,-1,-1,-1],"split_conditions":[4.6666665E0,4.5E0,5E0,4.3333335E0,5E0,4.9745083E0,4.506278E0,5.9700858E-2,2E0,4.32918E0,4.007175E0,3.6718445E0,3E0,4.0520296E0,-5.8453638E-2,-0E0,3.6584225E-2,2.596199E-2,2.311468E-3,-0E0,-1.5602719E-2,2.7021267E-2,2.7245015E-4,5.1936577E-4,-2.5329033E-2,1.3629019E-2,-3.3143874E-2],"split_indices":[3,4,0,3,6,4,4,0,6,3,0,0,6,1,0,0,0,0,0,0,0,0,0,0,0,0,0],"split_type":[0,0,0,0,0,0,0,0,0,0,0,0,0,0,0,0,0,0,0,0,0,0,0,0,0,0,0],"sum_hessian":[1.2961959E3,6.4760364E2,6.485923E2,3.9050595E2,2.5709772E2,2.6010297E2,3.8848932E2,3.379177E2,5.258824E1,2.0565247E2,5.1445236E1,1.0117171E2,1.5893126E2,2.5200275E1,3.6328906E2,2.0066137E0,5.0581627E1,1.4668413E2,5.896834E1,1.2865894E1,3.857934E1,2.0895897E1,8.027581E1,1.0844574E1,1.4808669E2,8.0873785E0,1.7112896E1],"tree_param":{"num_deleted":"0","num_feature":"7","num_nodes":"27","size_leaf_vector":"1"}},{"base_weights":[-1.4469134E-2,7.6121783E-1,-7.6955706E-1,1.1202025E0,2.780423E-1,7.057015E-6,-1.0010297E0,1.1600415E0,2.9050445E-2,5.3014654E-1,-1.2611143E-1,1.8153001E-1,-5.043717E-1,-4.827118E-1,-1.13086E0,5.9264656E-2,2.804884E-2,2.9393908E-2,3.035111E-3,9.031435E-3,-1.1969654E-2,1.4894841E-2,-5.2898927E-3,-0E0,-3.4287725E-2,-2.8590474E-3,-3.5278104E-2,-3.81905E-2,-6.0461342E-2],"categories":[],"categories_nodes":[],"categories_segments":[],"categories_sizes":[],"default_left":[0,0,0,0,0,0,0,0,0,0,0,0,0,0,0,0,0,0,0,0,0,0,0,0,0,0,0,0,0],"id":13,"left_children":[1,3,5,7,9,11,13,15,-1,17,19,21,23,25,27,-1,-1,-1,-1,-1,-1,-1,-1,-1,-1,-1,-1,-1,-1],"loss_changes":[7.5599225E2,1.0698517E2,1.1873715E2,3.275055E0,2.8921389E1,1.3294975E1,3.0064484E1,2.6119995E0,0E0,3.740841E0,3.869422E0,4.3731318E0,4.777027E0,8.804258E0,7.5943604E0,0E0,0E0,0E0,0E0,0E0,0E0,0E0,0E0,0E0,0E0,0E0,0E0,0E0,0E0],"parents":[2147483647,0,0,1,1,2,2,3,3,4,4,5,5,6,6,7,7,9,9,10,10,11,11,12,12,13,13,14,14],"right_children":[2,4,6,8,10,12,14,16,-1,18,20,22,24,26,28,-1,-1,-1,-1,-1,-1,-1,-1,-1,-1,-1,-1,-1,-1],"split_conditions":[4.6666665E0,4.4863453E0,5E0,4.6213145E0,4.657563E0,5E0,4.992253E0,4.955448E0,2.9050445E-2,4.28017E0,4.9745083E0,4.835221E0,4.007175E0,4.9345527E0,5E0,5.9264656E-2,2.804884E-2,2.9393908E-2,3.035111E-3,9.031435E-3,-1.1969654E-2,1.4894841E-2,-5.2898927E-3,-0E0,-3.4287725E-2,-2.8590474E-3,-3.5278104E-2,-3.81905E-2,-6.0461342E-2],"split_indices":[5,4,4,3,3,6,3,1,0,5,4,3,0,1,6,0,0,0,0,0,0,0,0,0,0,0,0,0,0],"split_type":[0,0,0,0,0,0,0,0,0,0,0,0,0,0,0,0,0,0,0,0,0,0,0,0,0,0,0,0,0],"sum_hessian":[1.2879668E3,6.3400555E2,6.539612E2,3.603435E2,2.7366205E2,1.4953485E2,5.0442636E2,3.3035367E2,2.9989843E1,1.713193E2,1.0234274E2,1.1351862E2,3.6016224E1,1.0541632E2,3.9901004E2,3.0708792E2,2.3265728E1,1.469563E2,2.4363007E1,2.2939186E1,7.940356E1,8.521451E1,2.830412E1,7.535515E0,2.848071E1,4.0581028E1,6.48353E1,8.6216446E1,3.1279358E2],"tree_param":{"num_deleted":"0","num_feature":"7","num_nodes":"29","size_leaf_vector":"1"}},{"base_weights":[-0E0,5.878895E-1,-8.4387845E-1,8.8290924E-1,-3.7834633E-2,-3.343098E-1,-1.0829842E0,1.0210291E0,4.4707283E-1,2.3146012E-1,-2.52789E-1,-0E0,-4.8288614E-1,-1.7393624E-2,-1.1256067E0,5.4105308E-2,1.9798372E-2,2.6260598E-2,-0E0,-0E0,1.6928583E-2,-2.7767368E-4,-2.5432514E-2,7.4396725E-3,-6.955998E-3,7.222049E-3,-2.5479168E-2,-0E0,-5.6691848E-2],"categories":[],"categories_nodes":[],"categories_segments":[],"categories_sizes":[],"default_left":[0,0,0,0,0,0,0,0,0,0,0,0,0,0,0,0,0,0,0,0,0,0,0,0,0,0,0,0,0],"id":14,"left_children":[1,3,5,7,9,11,13,15,17,19,21,23,25,-1,27,-1,-1,-1,-1,-1,-1,-1,-1,-1,-1,-1,-1,-1,-1],"loss_changes":[6.3261774E2,1.4065802E2,6.0407898E1,2.7361847E1,1.4030499E1,9.254927E0,7.514221E0,1.336853E1,3.885744E0,2.8176284E0,7.8665466E0,1.1198094E0,3.2347832E0,0E0,5.0552673E0,0E0,0E0,0E0,0E0,0E0,0E0,0E0,0E0,0E0,0E0,0E0,0E0,0E0,0E0],"parents":[2147483647,0,0,1,1,2,2,3,3,4,4,5,5,6,6,7,7,8,8,9,9,10,10,11,11,12,12,14,14],"right_children":[2,4,6,8,10,12,14,16,18,20,22,24,26,-1,28,-1,-1,-1,-1,-1,-1,-1,-1,-1,-1,-1,-1,-1,-1],"split_conditions":[5E0,5E0,5E0,4.3333335E0,4.32918E0,4.9745083E0,4.506278E0,4.3333335E0,5E0,3.6728823E0,4.918602E0,4.013952E0,2E0,-1.7393624E-2,4.007175E0,5.4105308E-2,1.9798372E-2,2.6260598E-2,-0E0,-0E0,1.6928583E-2,-2.7767368E-4,-2.5432514E-2,7.4396725E-3,-6.955998E-3,7.222049E-3,-2.5479168E-2,-0E0,-5.6691848E-2],"split_indices":[3,4,6,3,3,4,4,0,6,3,2,2,6,0,0,0,0,0,0,0,0,0,0,0,0,0,0,0,0],"split_type":[0,0,0,0,0,0,0,0,0,0,0,0,0,0,0,0,0,0,0,0,0,0,0,0,0,0,0,0,0],"sum_hessian":[1.2729385E3,7.511906E2,5.2174786E2,5.122893E2,2.3890128E2,1.7034795E2,3.5139993E2,3.8413382E2,1.2815552E2,1.0186978E2,1.370315E2,4.9720036E1,1.20627914E2,2.2610035E1,3.287899E2,3.410718E2,4.306201E1,1.046704E2,2.348511E1,3.1688244E1,7.018153E1,7.4954185E1,6.207731E1,2.9153938E1,2.0566097E1,2.44357E0,1.1818434E2,6.639018E0,3.2215088E2],"tree_param":{"num_deleted":"0","num_feature":"7","num_nodes":"29","size_leaf_vector":"1"}},{"base_weights":[4.839217E-3,6.310584E-1,-8.05322E-1,1.019119E0,2.3228103E-1,-3.2414877E-1,-1.0826564E0,1.0875894E0,4.9415374E-1,5.6058073E-1,-0E0,3.1044824E-2,-5.7535917E-1,-4.7304416E-1,-5.7633128E-2,5.5143632E-2,9.544608E-3,-0E0,2.6804112E-2,3.475037E-2,-0E0,1.4980278E-2,-5.65329E-3,2.0186057E-2,-6.1013917E-3,-1.6346594E-2,-3.345747E-2,-0E0,-3.0128337E-2],"categories":[],"categories_nodes":[],"categories_segments":[],"categories_sizes":[],"default_left":[0,0,0,0,0,0,0,0,0,0,0,0,0,0,0,0,0,0,0,0,0,0,0,0,0,0,0,0,0],"id":15,"left_children":[1,3,5,7,9,11,13,15,17,19,21,23,25,27,-1,-1,-1,-1,-1,-1,-1,-1,-1,-1,-1,-1,-1,-1,-1],"loss_changes":[6.413584E2,1.0778934E2,7.010928E1,9.019043E0,2.7702684E1,1.9467165E1,1.2897766E1,4.14151E0,1.1803942E0,1.1076111E1,7.081524E0,5.463563E0,7.196655E-1,3.8281527E0,0E0,0E0,0E0,0E0,0E0,0E0,0E0,0E0,0E0,0E0,0E0,0E0,0E0,0E0,0E0],"parents":[2147483647,0,0,1,1,2,2,3,3,4,4,5,5,6,6,7,7,8,8,9,9,10,10,11,11,12,12,13,13],"right_children":[2,4,6,8,10,12,14,16,18,20,22,24,26,28,-1,-1,-1,-1,-1,-1,-1,-1,-1,-1,-1,-1,-1,-1,-1],"split_conditions":[5E0,4.5E0,5E0,4.3333335E0,4.287432E0,5E0,4.669233E0,4.669233E0,3.0688138E0,4.28017E0,4.9745083E0,4.114912E0,4.0520296E0,4.015202E0,-5.7633128E-2,5.5143632E-2,9.544608E-3,-0E0,2.6804112E-2,3.475037E-2,-0E0,1.4980278E-2,-5.65329E-3,2.0186057E-2,-6.1013917E-3,-1.6346594E-2,-3.345747E-2,-0E0,-3.0128337E-2],"split_indices":[5,4,6,5,3,4,3,3,4,5,4,3,1,4,0,0,0,0,0,0,0,0,0,0,0,0,0,0,0],"split_type":[0,0,0,0,0,0,0,0,0,0,0,0,0,0,0,0,0,0,0,0,0,0,0,0,0,0,0,0,0],"sum_hessian":[1.262119E3,7.134351E2,5.486839E2,3.579587E2,3.554764E2,2.0433469E2,3.443492E2,3.1199408E2,4.5964622E1,1.4805736E2,2.0741905E2,8.184534E1,1.2248935E2,4.4065903E1,3.002833E2,3.0098056E2,1.1013525E1,3.7865715E0,4.217805E1,1.1666162E2,3.1395737E1,5.411021E1,1.5330884E2,2.6906088E1,5.493925E1,4.288035E1,7.9609E1,7.566412E0,3.649949E1],"tree_param":{"num_deleted":"0","num_feature":"7","num_nodes":"29","size_leaf_vector":"1"}},{"base_weights":[1.3277104E-2,6.334733E-1,-7.9019415E-1,1.0220109E0,2.381121E-1,-1.950919E-1,-1.0011363E0,1.0870415E0,3.6330816E-1,5.864343E-1,-0E0,6.6761434E-2,-4.3572643E-1,-6.0749507E-1,-1.1237123E0,5.5325903E-2,1.5679926E-2,3.864617E-2,5.733683E-3,3.4927916E-2,2.8038335E-3,1.4269317E-2,-5.15463E-3,2.5155943E-2,-2.4124444E-3,-8.229581E-3,-3.23472E-2,-0E0,-3.0863287E-2,-9.089473E-3,-5.63885E-2],"categories":[],"categories_nodes":[],"categories_segments":[],"categories_sizes":[],"default_left":[0,0,0,0,0,0,0,0,0,0,0,0,0,0,0,0,0,0,0,0,0,0,0,0,0,0,0,0,0,0,0],"id":16,"left_children":[1,3,5,7,9,11,13,15,17,19,21,23,25,27,29,-1,-1,-1,-1,-1,-1,-1,-1,-1,-1,-1,-1,-1,-1,-1,-1],"loss_changes":[6.1043677E2,1.03617004E2,6.419144E1,1.1407532E1,2.9171137E1,9.822229E0,1.4441559E1,3.708313E0,1.7941351E0,7.338623E0,6.141636E0,4.307447E0,2.8350077E0,1.0297737E0,9.5077515E-1,0E0,0E0,0E0,0E0,0E0,0E0,0E0,0E0,0E0,0E0,0E0,0E0,0E0,0E0,0E0,0E0],"parents":[2147483647,0,0,1,1,2,2,3,3,4,4,5,5,6,6,7,7,8,8,9,9,10,10,11,11,12,12,13,13,14,14],"right_children":[2,4,6,8,10,12,14,16,18,20,22,24,26,28,30,-1,-1,-1,-1,-1,-1,-1,-1,-1,-1,-1,-1,-1,-1,-1,-1],"split_conditions":[5E0,4.4863453E0,5E0,4.6213145E0,4.3115177E0,5E0,5E0,5E0,3.3457174E0,4.28017E0,4.9632626E0,3.9672763E0,4.013952E0,2.0397604E0,4.015202E0,5.5325903E-2,1.5679926E-2,3.864617E-2,5.733683E-3,3.4927916E-2,2.8038335E-3,1.4269317E-2,-5.15463E-3,2.5155943E-2,-2.4124444E-3,-8.229581E-3,-3.23472E-2,-0E0,-3.0863287E-2,-9.089473E-3,-5.63885E-2],"split_indices":[5,4,3,3,3,4,6,6,5,5,4,2,2,2,4,0,0,0,0,0,0,0,0,0,0,0,0,0,0,0,0],"split_type":[0,0,0,0,0,0,0,0,0,0,0,0,0,0,0,0,0,0,0,0,0,0,0,0,0,0,0,0,0,0,0],"sum_hessian":[1.2229092E3,6.917376E2,5.311716E2,3.4523758E2,3.465E2,1.4217622E2,3.8899533E2,3.1064563E2,3.4591953E1,1.4080908E2,2.0569092E2,6.457808E1,7.7598145E1,9.8170784E1,2.9082455E2,2.9616147E2,1.4484152E1,8.792642E0,2.5799313E1,1.1164594E2,2.9163147E1,5.2555603E1,1.5313531E2,1.6034876E1,4.8543205E1,3.9782494E1,3.7815647E1,2.1677094E0,9.6003075E1,6.678756E0,2.8414578E2],"tree_param":{"num_deleted":"0","num_feature":"7","num_nodes":"31","size_leaf_vector":"1"}},{"base_weights":[7.854585E-3,6.921707E-1,-6.7624724E-1,9.2985857E-1,1.2521216E-1,-9.7302444E-2,-9.4594455E-1,9.957232E-1,4.302142E-1,4.2961022E-1,-5.3520467E-2,3.1531402E-1,-2.6070395E-1,-5.625483E-1,-1.0853088E0,5.183564E-2,1.815299E-2,-0E0,2.3131577E-2,-6.862056E-4,3.3583384E-2,2.6368105E-3,-9.518205E-3,3.701774E-2,-3.65217E-3,-0E0,-1.8288331E-2,-0E0,-3.0941393E-2,-1.4895402E-3,-5.4678097E-2],"categories":[],"categories_nodes":[],"categories_segments":[],"categories_sizes":[],"default_left":[0,0,0,0,0,0,0,0,0,0,0,0,0,0,0,0,0,0,0,0,0,0,0,0,0,0,0,0,0,0,0],"id":17,"left_children":[1,3,5,7,9,11,13,15,17,19,21,23,25,27,29,-1,-1,-1,-1,-1,-1,-1,-1,-1,-1,-1,-1,-1,-1,-1,-1],"loss_changes":[5.6990155E2,7.993533E1,9.261047E1,1.0619751E1,1.0808109E1,1.3276586E1,1.7873657E1,8.440277E0,1.0657759E0,9.310381E0,1.9649022E0,1.0319891E1,3.973833E0,4.0012093E0,3.3254395E0,0E0,0E0,0E0,0E0,0E0,0E0,0E0,0E0,0E0,0E0,0E0,0E0,0E0,0E0,0E0,0E0],"parents":[2147483647,0,0,1,1,2,2,3,3,4,4,5,5,6,6,7,7,8,8,9,9,10,10,11,11,12,12,13,13,14,14],"right_children":[2,4,6,8,10,12,14,16,18,20,22,24,26,28,30,-1,-1,-1,-1,-1,-1,-1,-1,-1,-1,-1,-1,-1,-1,-1,-1],"split_conditions":[4.6666665E0,4.9745083E0,4.942372E0,4.657563E0,4.238876E0,4.015202E0,5E0,4.315127E0,3.0688138E0,3.6754036E0,4.577857E0,4.246211E0,5E0,3E0,4.007175E0,5.183564E-2,1.815299E-2,-0E0,2.3131577E-2,-6.862056E-4,3.3583384E-2,2.6368105E-3,-9.518205E-3,3.701774E-2,-3.65217E-3,-0E0,-1.8288331E-2,-0E0,-3.0941393E-2,-1.4895402E-3,-5.4678097E-2],"split_indices":[5,4,3,3,3,4,6,5,4,5,0,3,5,6,0,0,0,0,0,0,0,0,0,0,0,0,0,0,0,0,0],"split_type":[0,0,0,0,0,0,0,0,0,0,0,0,0,0,0,0,0,0,0,0,0,0,0,0,0,0,0,0,0,0,0],"sum_hessian":[1.2145731E3,6.0864496E2,6.0592816E2,4.2575397E2,1.8289102E2,1.955098E2,4.1041837E2,3.7143326E2,5.43207E1,7.109123E1,1.117998E2,5.1629227E1,1.4388057E2,1.15072136E2,2.9534622E2,3.402015E2,3.1231747E1,3.4859493E0,5.0834755E1,2.3070673E1,4.8020557E1,5.547108E1,5.6328716E1,2.6315577E1,2.531365E1,4.3574726E1,1.0030585E2,1.16445055E1,1.0342763E2,6.879308E0,2.8846692E2],"tree_param":{"num_deleted":"0","num_feature":"7","num_nodes":"31","size_leaf_vector":"1"}},{"base_weights":[6.997141E-3,5.706336E-1,-7.324007E-1,8.588699E-1,1.021397E-2,-0E0,-9.180584E-1,9.668306E-1,4.477363E-1,1.8108784E-1,-2.226031E-1,1.6743731E-1,-1.50936665E-2,-4.9420604E-1,-1.0618403E0,5.1472902E-2,2.0561036E-2,3.0815575E-2,9.768196E-3,-4.0811724E-3,1.9123415E-2,1.6080579E-2,-1.3651464E-2,1.636804E-2,-0E0,-1.6562322E-2,-3.2663357E-2,-3.441198E-2,-5.5491187E-2],"categories":[],"categories_nodes":[],"categories_segments":[],"categories_sizes":[],"default_left":[0,0,0,0,0,0,0,0,0,0,0,0,0,0,0,0,0,0,0,0,0,0,0,0,0,0,0,0,0],"id":18,"left_children":[1,3,5,7,9,11,13,15,17,19,21,23,-1,25,27,-1,-1,-1,-1,-1,-1,-1,-1,-1,-1,-1,-1,-1,-1],"loss_changes":[4.9302216E2,1.0700342E2,6.94646E1,1.6208862E1,9.217444E0,5.3945684E0,2.0996124E1,1.0187378E1,2.4864483E0,8.18924E0,2.7431345E0,2.395051E0,0E0,5.953541E-1,1.6800537E0,0E0,0E0,0E0,0E0,0E0,0E0,0E0,0E0,0E0,0E0,0E0,0E0,0E0,0E0],"parents":[2147483647,0,0,1,1,2,2,3,3,4,4,5,5,6,6,7,7,8,8,9,9,10,10,11,11,13,13,14,14],"right_children":[2,4,6,8,10,12,14,16,18,20,22,24,-1,26,28,-1,-1,-1,-1,-1,-1,-1,-1,-1,-1,-1,-1,-1,-1],"split_conditions":[5E0,4.9745083E0,4.750022E0,4.3106575E0,4.225773E0,4.55624E0,4.971869E0,4.28017E0,4.400316E0,3.6754036E0,3E0,4.007175E0,-1.50936665E-2,4.539299E0,5E0,5.1472902E-2,2.0561036E-2,3.0815575E-2,9.768196E-3,-4.0811724E-3,1.9123415E-2,1.6080579E-2,-1.3651464E-2,1.636804E-2,-0E0,-1.6562322E-2,-3.2663357E-2,-3.441198E-2,-5.5491187E-2],"split_indices":[5,4,4,0,5,2,0,5,4,5,6,0,0,0,6,0,0,0,0,0,0,0,0,0,0,0,0,0,0],"split_type":[0,0,0,0,0,0,0,0,0,0,0,0,0,0,0,0,0,0,0,0,0,0,0,0,0,0,0,0,0],"sum_hessian":[1.1810563E3,6.718938E2,5.0916245E2,4.4085632E2,2.3103748E2,1.0318933E2,4.0597308E2,3.4385425E2,9.700205E1,1.3837328E2,9.266421E1,6.708499E1,3.6104343E1,1.07889755E2,2.9808334E2,2.999981E2,4.385614E1,5.134266E1,4.5659393E1,5.6606003E1,8.176727E1,4.2133656E0,8.8450836E1,3.8183376E1,2.8901613E1,6.300676E1,4.488299E1,4.7677597E1,2.5040575E2],"tree_param":{"num_deleted":"0","num_feature":"7","num_nodes":"29","size_leaf_vector":"1"}},{"base_weights":[-3.2590993E-3,5.5074465E-1,-7.407726E-1,9.5161605E-1,1.5322842E-1,-1.771443E-1,-9.3187475E-1,1.0036613E0,5.410296E-1,3.0278558E-1,-2.2109582E-1,8.111274E-2,-3.1819108E-1,-3.419707E-1,-9.893777E-1,5.107545E-2,4.6285572E-3,3.149895E-2,-0E0,2.2954658E-2,-0E0,-0E0,-1.4285195E-2,2.0143008E-2,-4.8390627E-3,-0E0,-1.6877487E-2,-0E0,-2.1627251E-2,-2.4778146E-2,-5.064066E-2],"categories":[],"categories_nodes":[],"categories_segments":[],"categories_sizes":[],"default_left":[0,0,0,0,0,0,0,0,0,0,0,0,0,0,0,0,0,0,0,0,0,0,0,0,0,0,0,0,0,0,0],"id":19,"left_children":[1,3,5,7,9,11,13,15,17,19,21,23,25,27,29,-1,-1,-1,-1,-1,-1,-1,-1,-1,-1,-1,-1,-1,-1,-1,-1],"loss_changes":[4.831416E2,1.0486301E2,5.231427E1,3.2730103E0,1.940815E1,5.3561826E0,9.65329E0,4.7143555E0,2.5466156E0,1.2896236E1,1.6302094E0,3.177076E0,1.031868E0,1.9609861E0,1.6524963E0,0E0,0E0,0E0,0E0,0E0,0E0,0E0,0E0,0E0,0E0,0E0,0E0,0E0,0E0,0E0,0E0],"parents":[2147483647,0,0,1,1,2,2,3,3,4,4,5,5,6,6,7,7,8,8,9,9,10,10,11,11,12,12,13,13,14,14],"right_children":[2,4,6,8,10,12,14,16,18,20,22,24,26,28,30,-1,-1,-1,-1,-1,-1,-1,-1,-1,-1,-1,-1,-1,-1,-1,-1],"split_conditions":[5E0,4.5E0,4.654421E0,4.3333335E0,4.992253E0,4.0520296E0,4.750022E0,4.669233E0,4.451546E0,4.240272E0,4.9745083E0,4.246211E0,3.3680203E0,3.0155332E0,4.842031E0,5.107545E-2,4.6285572E-3,3.149895E-2,-0E0,2.2954658E-2,-0E0,-0E0,-1.4285195E-2,2.0143008E-2,-4.8390627E-3,-0E0,-1.6877487E-2,-0E0,-2.1627251E-2,-2.4778146E-2,-5.064066E-2],"split_indices":[5,4,0,5,3,4,4,3,0,5,4,3,3,2,1,0,0,0,0,0,0,0,0,0,0,0,0,0,0,0,0],"split_type":[0,0,0,0,0,0,0,0,0,0,0,0,0,0,0,0,0,0,0,0,0,0,0,0,0,0,0,0,0,0,0],"sum_hessian":[1.178818E3,6.718059E2,5.0701202E2,3.3103955E2,3.4076636E2,1.3169395E2,3.7531808E2,2.877263E2,4.3313263E1,2.4748865E2,9.3277725E1,4.1714523E1,8.997943E1,3.7266888E1,3.3805118E2,2.7714136E2,1.05849285E1,3.7311394E1,6.001871E0,1.6508711E2,8.2401535E1,1.9341661E1,7.393606E1,1.8143633E1,2.3570889E1,2.7083845E0,8.727105E1,4.6128855E0,3.2654003E1,2.625589E1,3.117953E2],"tree_param":{"num_deleted":"0","num_feature":"7","num_nodes":"31","size_leaf_vector":"1"}},{"base_weights":[-0E0,6.231943E-1,-6.075188E-1,9.437858E-1,2.5644913E-1,-1.0084058E-1,-8.727427E-1,1.0093038E0,3.1140491E-2,4.6587205E-1,-6.9226235E-2,1.806364E-1,-3.7378183E-1,-3.627353E-1,-9.435271E-1,5.205742E-2,1.7260062E-2,2.8717302E-2,1.09570045E-2,2.3276794E-3,-1.1461523E-2,1.3565918E-2,-2.6193967E-3,-5.2782623E-3,-2.6426643E-2,-0E0,-2.6239814E-2,-2.8548026E-2,-4.989503E-2],"categories":[],"categories_nodes":[],"categories_segments":[],"categories_sizes":[],"default_left":[0,0,0,0,0,0,0,0,0,0,0,0,0,0,0,0,0,0,0,0,0,0,0,0,0,0,0,0,0],"id":20,"left_children":[1,3,5,7,9,11,13,15,-1,17,19,21,23,25,27,-1,-1,-1,-1,-1,-1,-1,-1,-1,-1,-1,-1,-1,-1],"loss_changes":[4.4028717E2,6.4642654E1,7.721344E1,2.1074219E0,1.9392508E1,1.6369406E1,1.0800598E1,3.305481E0,0E0,2.9370155E0,2.340257E0,2.6166737E0,3.2914696E0,2.556016E0,3.7933044E0,0E0,0E0,0E0,0E0,0E0,0E0,0E0,0E0,0E0,0E0,0E0,0E0,0E0,0E0],"parents":[2147483647,0,0,1,1,2,2,3,3,4,4,5,5,6,6,7,7,9,9,10,10,11,11,12,12,13,13,14,14],"right_children":[2,4,6,8,10,12,14,16,-1,18,20,22,24,26,28,-1,-1,-1,-1,-1,-1,-1,-1,-1,-1,-1,-1,-1,-1],"split_conditions":[4.6489377E0,4.5E0,4.992253E0,4.3333335E0,4.657563E0,5E0,4.0520296E0,4.3106575E0,3.1140491E-2,4.3158593E0,4.577857E0,4.5720916E0,4.9345527E0,4.506278E0,4.798563E0,5.205742E-2,1.7260062E-2,2.8717302E-2,1.09570045E-2,2.3276794E-3,-1.1461523E-2,1.3565918E-2,-2.6193967E-3,-5.2782623E-3,-2.6426643E-2,-0E0,-2.6239814E-2,-2.8548026E-2,-4.989503E-2],"split_indices":[5,4,3,3,3,4,1,0,0,0,0,0,1,4,0,0,0,0,0,0,0,0,0,0,0,0,0,0,0],"split_type":[0,0,0,0,0,0,0,0,0,0,0,0,0,0,0,0,0,0,0,0,0,0,0,0,0,0,0,0,0],"sum_hessian":[1.1602538E3,5.716581E2,5.8859564E2,3.00967E2,2.7069107E2,2.0547813E2,3.8311752E2,2.4146863E2,5.9498394E1,1.6813016E2,1.025609E2,9.777705E1,1.0770109E2,5.1154533E1,3.31963E2,2.237195E2,1.7749117E1,1.07982185E2,6.0147976E1,5.310753E1,4.9453373E1,7.585959E1,2.1917456E1,4.578273E1,6.1918358E1,1.8752222E1,3.2402313E1,5.5429718E1,2.765333E2],"tree_param":{"num_deleted":"0","num_feature":"7","num_nodes":"29","size_leaf_vector":"1"}},{"base_weights":[8.7374916E-5,5.37838E-1,-7.226565E-1,9.0485144E-1,1.8911245E-1,-2.9130706E-1,-9.8112714E-1,9.465854E-1,1.15870915E-1,3.13287E-1,-1.5299131E-1,-6.410458E-2,-2.8805787E-2,-1.3549729E-2,-1.027163E0,4.967286E-2,2.6416415E-2,1.7371217E-2,-5.638333E-3,2.2126103E-2,1.5574816E-3,8.315788E-3,-1.3399523E-2,4.8368345E-3,-1.3999833E-2,-1.7011648E-2,-5.212797E-2],"categories":[],"categories_nodes":[],"categories_segments":[],"categories_sizes":[],"default_left":[0,0,0,0,0,0,0,0,0,0,0,0,0,0,0,0,0,0,0,0,0,0,0,0,0,0,0],"id":21,"left_children":[1,3,5,7,9,11,13,15,17,19,21,23,-1,-1,25,-1,-1,-1,-1,-1,-1,-1,-1,-1,-1,-1,-1],"loss_changes":[4.421577E2,8.133893E1,5.1045456E1,8.120819E0,1.4833697E1,1.0928143E1,6.7662964E0,3.0512085E0,1.5960698E0,8.569815E0,3.5507543E0,4.2858257E0,0E0,0E0,1.4094543E0,0E0,0E0,0E0,0E0,0E0,0E0,0E0,0E0,0E0,0E0,0E0,0E0],"parents":[2147483647,0,0,1,1,2,2,3,3,4,4,5,5,6,6,7,7,8,8,9,9,10,10,11,11,14,14],"right_children":[2,4,6,8,10,12,14,16,18,20,22,24,-1,-1,26,-1,-1,-1,-1,-1,-1,-1,-1,-1,-1,-1,-1],"split_conditions":[5E0,4.4836383E0,4.971869E0,5E0,5E0,4.934039E0,4.506278E0,4.3333335E0,4.013952E0,4.28017E0,4.911902E0,4.750022E0,-2.8805787E-2,-1.3549729E-2,4.0520296E0,4.967286E-2,2.6416415E-2,1.7371217E-2,-5.638333E-3,2.2126103E-2,1.5574816E-3,8.315788E-3,-1.3399523E-2,4.8368345E-3,-1.3999833E-2,-1.7011648E-2,-5.212797E-2],"split_indices":[5,4,0,6,6,2,4,0,2,5,4,4,0,0,1,0,0,0,0,0,0,0,0,0,0,0,0],"split_type":[0,0,0,0,0,0,0,0,0,0,0,0,0,0,0,0,0,0,0,0,0,0,0,0,0,0,0],"sum_hessian":[1.1358811E3,6.530797E2,4.8280142E2,3.143421E2,3.387376E2,1.8488875E2,2.9791266E2,2.958836E2,1.84585E1,2.5290202E2,8.583559E1,1.084616E2,7.642715E1,2.1426777E1,2.764859E2,2.5477132E2,4.1112293E1,1.3082141E1,5.37636E0,1.6638919E2,8.651284E1,1.8274218E1,6.756137E1,5.7490143E1,5.097146E1,1.3166021E1,2.6331985E2],"tree_param":{"num_deleted":"0","num_feature":"7","num_nodes":"27","size_leaf_vector":"1"}},{"base_weights":[-1.7611198E-3,4.9681228E-1,-6.639953E-1,7.673756E-1,-0E0,-2.565615E-1,-9.2568916E-1,8.568024E-1,2.9612854E-1,1.7910774E-1,-2.4914585E-1,1.510321E-1,-4.0205124E-1,-4.2917326E-1,-1.0006275E0,4.5864593E-2,1.960917E-2,1.8968176E-2,-0E0,-4.3285764E-3,1.93577E-2,1.1729257E-2,-1.4701057E-2,2.669388E-2,-2.7790258E-3,-0E0,-2.2635764E-2,-0E0,-2.37758E-2,-1.2549066E-2,-5.1265072E-2],"categories":[],"categories_nodes":[],"categories_segments":[],"categories_sizes":[],"default_left":[0,0,0,0,0,0,0,0,0,0,0,0,0,0,0,0,0,0,0,0,0,0,0,0,0,0,0,0,0,0,0],"id":22,"left_children":[1,3,5,7,9,11,13,15,17,19,21,23,25,27,29,-1,-1,-1,-1,-1,-1,-1,-1,-1,-1,-1,-1,-1,-1,-1,-1],"loss_changes":[3.726346E2,8.5246704E1,4.913336E1,1.4781189E1,1.0200539E1,1.2146178E1,7.435379E0,7.732132E0,2.0573597E0,8.384041E0,2.3716803E0,4.9126134E0,2.8699398E0,4.728794E-1,3.3750153E0,0E0,0E0,0E0,0E0,0E0,0E0,0E0,0E0,0E0,0E0,0E0,0E0,0E0,0E0,0E0,0E0],"parents":[2147483647,0,0,1,1,2,2,3,3,4,4,5,5,6,6,7,7,8,8,9,9,10,10,11,11,12,12,13,13,14,14],"right_children":[2,4,6,8,10,12,14,16,18,20,22,24,26,28,30,-1,-1,-1,-1,-1,-1,-1,-1,-1,-1,-1,-1,-1,-1,-1,-1],"split_conditions":[5E0,4.9745083E0,5E0,4.662872E0,4.225773E0,4.015202E0,4.669233E0,4.3333335E0,5E0,3.6754036E0,3E0,4.246211E0,3.0155332E0,4.015202E0,4.506278E0,4.5864593E-2,1.960917E-2,1.8968176E-2,-0E0,-4.3285764E-3,1.93577E-2,1.1729257E-2,-1.4701057E-2,2.669388E-2,-2.7790258E-3,-0E0,-2.2635764E-2,-0E0,-2.37758E-2,-1.2549066E-2,-5.1265072E-2],"split_indices":[5,4,6,3,5,4,3,5,6,5,6,3,2,4,4,0,0,0,0,0,0,0,0,0,0,0,0,0,0,0,0],"split_type":[0,0,0,0,0,0,0,0,0,0,0,0,0,0,0,0,0,0,0,0,0,0,0,0,0,0,0,0,0,0,0],"sum_hessian":[1.1248663E3,6.402014E2,4.8466495E2,4.123119E2,2.2788954E2,1.9359656E2,2.910684E2,3.4204343E2,7.026844E1,1.3582146E2,9.206808E1,4.7296223E1,1.4630034E2,4.2872837E1,2.4819557E2,2.9273837E2,4.9305054E1,5.555915E1,1.4709294E1,5.6272484E1,7.954897E1,3.9655473E0,8.810253E1,1.907331E1,2.822291E1,1.9494383E1,1.26805954E2,6.781988E0,3.609085E1,1.3805001E1,2.3439056E2],"tree_param":{"num_deleted":"0","num_feature":"7","num_nodes":"31","size_leaf_vector":"1"}},{"base_weights":[1.4602712E-2,5.038595E-1,-6.4296937E-1,8.243604E-1,2.0769018E-1,-2.2542597E-1,-9.078626E-1,8.982291E-1,3.1948116E-1,3.4789377E-1,-1.0529703E-2,5.1228296E-2,-4.3238673E-1,-1.5881581E-2,-4.7758617E-2,4.6635706E-2,1.1763907E-2,2.0819146E-2,-0E0,2.392923E-2,3.17434E-3,6.6497345E-3,-4.609727E-3,1.4164056E-2,-0E0,-8.397296E-3,-2.8914731E-2],"categories":[],"categories_nodes":[],"categories_segments":[],"categories_sizes":[],"default_left":[0,0,0,0,0,0,0,0,0,0,0,0,0,0,0,0,0,0,0,0,0,0,0,0,0,0,0],"id":23,"left_children":[1,3,5,7,9,11,13,15,17,19,21,23,25,-1,-1,-1,-1,-1,-1,-1,-1,-1,-1,-1,-1,-1,-1],"loss_changes":[3.5269522E2,5.757965E1,4.903218E1,8.333725E0,1.086525E1,1.1428188E1,6.255951E0,4.60376E0,2.0925741E0,6.843605E0,1.43835E0,1.3941679E0,2.7502213E0,0E0,0E0,0E0,0E0,0E0,0E0,0E0,0E0,0E0,0E0,0E0,0E0,0E0,0E0],"parents":[2147483647,0,0,1,1,2,2,3,3,4,4,5,5,6,6,7,7,8,8,9,9,10,10,11,11,12,12],"right_children":[2,4,6,8,10,12,14,16,18,20,22,24,26,-1,-1,-1,-1,-1,-1,-1,-1,-1,-1,-1,-1,-1,-1],"split_conditions":[4.9156065E0,4.5E0,5E0,4.3333335E0,4.28017E0,5E0,4.3672986E0,5E0,4.451546E0,5E0,4.911902E0,3.9672763E0,4.934039E0,-1.5881581E-2,-4.7758617E-2,4.6635706E-2,1.1763907E-2,2.0819146E-2,-0E0,2.392923E-2,3.17434E-3,6.6497345E-3,-4.609727E-3,1.4164056E-2,-0E0,-8.397296E-3,-2.8914731E-2],"split_indices":[5,4,6,5,5,4,0,1,0,2,4,2,2,0,0,0,0,0,0,0,0,0,0,0,0,0,0],"split_type":[0,0,0,0,0,0,0,0,0,0,0,0,0,0,0,0,0,0,0,0,0,0,0,0,0,0,0],"sum_hessian":[1.0944014E3,6.2943787E2,4.649636E2,2.9788965E2,3.3154822E2,1.8439012E2,2.8057346E2,2.5548547E2,4.240417E1,2.069438E2,1.2460441E2,7.521263E1,1.0917748E2,2.8259178E1,2.5231429E2,2.3655913E2,1.892634E1,3.5806644E1,6.5975256E0,1.348321E2,7.211169E1,3.612596E1,8.847845E1,1.8163479E1,5.7049152E1,4.5724014E1,6.3453465E1],"tree_param":{"num_deleted":"0","num_feature":"7","num_nodes":"27","size_leaf_vector":"1"}},{"base_weights":[9.289134E-3,4.7409323E-1,-6.2374246E-1,7.21751E-1,3.978111E-2,-2.1090853E-1,-9.0205246E-1,8.3175755E-1,2.2737731E-1,3.053693E-1,-9.34121E-2,4.32006E-2,-3.6034453E-1,-0E0,-9.500267E-1,4.476675E-2,1.2897282E-2,1.703237E-2,-2.4382956E-3,-0E0,2.1318775E-2,-0E0,-1.0536462E-2,1.2485645E-2,-1.0265643E-2,-2.3058753E-3,-2.5008932E-2,1.0331019E-2,-8.49787E-3,-2.7899167E-2,-5.0459612E-2],"categories":[],"categories_nodes":[],"categories_segments":[],"categories_sizes":[],"default_left":[0,0,0,0,0,0,0,0,0,0,0,0,0,0,0,0,0,0,0,0,0,0,0,0,0,0,0,0,0,0,0],"id":24,"left_children":[1,3,5,7,9,11,13,15,17,19,21,23,25,27,29,-1,-1,-1,-1,-1,-1,-1,-1,-1,-1,-1,-1,-1,-1,-1,-1],"loss_changes":[3.236096E2,6.690828E1,5.0856827E1,1.9507477E1,8.795266E0,7.9321146E0,1.150882E1,1.0657455E1,3.1349187E0,3.1530337E0,2.0479913E0,3.6736014E0,4.5605946E0,5.923622E-1,2.9100037E0,0E0,0E0,0E0,0E0,0E0,0E0,0E0,0E0,0E0,0E0,0E0,0E0,0E0,0E0,0E0,0E0],"parents":[2147483647,0,0,1,1,2,2,3,3,4,4,5,5,6,6,7,7,8,8,9,9,10,10,11,11,12,12,13,13,14,14],"right_children":[2,4,6,8,10,12,14,16,18,20,22,24,26,28,30,-1,-1,-1,-1,-1,-1,-1,-1,-1,-1,-1,-1,-1,-1,-1,-1],"split_conditions":[5E0,4.9745083E0,5E0,4.3333335E0,4.3115177E0,4.598902E0,4.015202E0,4.662872E0,4.5720916E0,3.6754036E0,4.942372E0,5E0,4E0,4.3370075E0,4.7489467E0,4.476675E-2,1.2897282E-2,1.703237E-2,-2.4382956E-3,-0E0,2.1318775E-2,-0E0,-1.0536462E-2,1.2485645E-2,-1.0265643E-2,-2.3058753E-3,-2.5008932E-2,1.0331019E-2,-8.49787E-3,-2.7899167E-2,-5.0459612E-2],"split_indices":[5,4,6,5,3,3,4,3,0,5,3,4,6,3,0,0,0,0,0,0,0,0,0,0,0,0,0,0,0,0,0],"split_type":[0,0,0,0,0,0,0,0,0,0,0,0,0,0,0,0,0,0,0,0,0,0,0,0,0,0,0,0,0,0,0],"sum_hessian":[1.0981133E3,6.3521094E2,4.6290237E2,4.010261E2,2.3418486E2,1.9026097E2,2.726414E2,3.239624E2,7.706369E1,8.264417E1,1.5154068E2,6.5858215E1,1.2440276E2,1.4223179E1,2.584182E2,2.8409775E2,3.9864666E1,5.9107704E1,1.7955986E1,2.463695E1,5.800722E1,7.808103E1,7.3459656E1,4.026513E1,2.5593084E1,4.4118084E1,8.028468E1,5.319954E0,8.903224E0,4.4979263E1,2.1343895E2],"tree_param":{"num_deleted":"0","num_feature":"7","num_nodes":"31","size_leaf_vector":"1"}},{"base_weights":[1.6064597E-2,6.435567E-1,-4.3596447E-1,9.5179456E-1,2.7715826E-1,-3.326931E-2,-7.098283E-1,4.829084E-2,9.470965E-3,5.013958E-1,2.1996886E-2,1.0866508E-1,-2.5351888E-1,-3.262442E-1,-8.7986267E-1,1.2296577E-2,3.0836554E-2,1.0658968E-2,-1.0822939E-3,1.6799087E-2,-0E0,-0E0,-1.7574362E-2,-0E0,-1.7427042E-2,-0E0,-4.4839155E-2],"categories":[],"categories_nodes":[],"categories_segments":[],"categories_sizes":[],"default_left":[0,0,0,0,0,0,0,0,0,0,0,0,0,0,0,0,0,0,0,0,0,0,0,0,0,0,0],"id":25,"left_children":[1,3,5,7,9,11,13,-1,-1,15,17,19,21,23,25,-1,-1,-1,-1,-1,-1,-1,-1,-1,-1,-1,-1],"loss_changes":[3.0689017E2,4.8486847E1,6.754461E1,1.6022034E0,1.1093531E1,8.38884E0,2.1310013E1,0E0,0E0,1.3796024E0,1.2813432E0,3.2528791E0,2.4572592E0,1.6478615E0,4.175232E0,0E0,0E0,0E0,0E0,0E0,0E0,0E0,0E0,0E0,0E0,0E0,0E0],"parents":[2147483647,0,0,1,1,2,2,3,3,4,4,5,5,6,6,9,9,10,10,11,11,12,12,13,13,14,14],"right_children":[2,4,6,8,10,12,14,-1,-1,16,18,20,22,24,26,-1,-1,-1,-1,-1,-1,-1,-1,-1,-1,-1,-1],"split_conditions":[4.3333335E0,4.5E0,5E0,4.669233E0,4.1836495E0,4.9345527E0,5E0,4.829084E-2,9.470965E-3,3.6754036E0,4.9632626E0,3.9672763E0,4.911902E0,2.0397604E0,4.36008E0,1.2296577E-2,3.0836554E-2,1.0658968E-2,-1.0822939E-3,1.6799087E-2,-0E0,-0E0,-1.7574362E-2,-0E0,-1.7427042E-2,-0E0,-4.4839155E-2],"split_indices":[5,4,3,3,3,1,6,0,0,5,4,2,4,2,5,0,0,0,0,0,0,0,0,0,0,0,0],"split_type":[0,0,0,0,0,0,0,0,0,0,0,0,0,0,0,0,0,0,0,0,0,0,0,0,0,0,0],"sum_hessian":[1.0777755E3,4.5290872E2,6.2486676E2,2.418288E2,2.1107993E2,2.565148E2,3.6835196E2,2.3191542E2,9.913376E0,1.07475296E2,1.0360464E2,1.5088876E2,1.05626015E2,1.17968414E2,2.5038356E2,4.1405624E1,6.606967E1,2.6625036E1,7.69796E1,4.2590874E1,1.082979E2,3.276967E1,7.2856346E1,3.293391E0,1.1467502E2,8.5749655E0,2.418086E2],"tree_param":{"num_deleted":"0","num_feature":"7","num_nodes":"27","size_leaf_vector":"1"}},{"base_weights":[-1.3979793E-3,4.3312606E-1,-6.126831E-1,7.8681076E-1,1.2942901E-1,-2.1697058E-1,-8.697146E-1,8.415655E-1,3.858329E-1,2.3829316E-1,-1.6680574E-1,-1.361679E-2,-1.774658E-2,-7.8608375E-3,-9.1437316E-1,4.3337476E-2,1.6844982E-2,2.434169E-2,-0E0,2.2747952E-2,4.7702533E-3,-0E0,-1.5490061E-2,5.1516006E-3,-1.6878627E-2,-1.2202198E-2,-4.685626E-2],"categories":[],"categories_nodes":[],"categories_segments":[],"categories_sizes":[],"default_left":[0,0,0,0,0,0,0,0,0,0,0,0,0,0,0,0,0,0,0,0,0,0,0,0,0,0,0],"id":26,"left_children":[1,3,5,7,9,11,13,15,17,19,21,23,-1,-1,25,-1,-1,-1,-1,-1,-1,-1,-1,-1,-1,-1,-1],"loss_changes":[2.8215353E2,6.443095E1,4.2597046E1,3.299881E0,1.1074171E1,4.392872E0,6.0672913E0,1.1751099E0,2.293282E0,6.7339363E0,1.5870304E0,3.621445E0,0E0,0E0,2.4180756E0,0E0,0E0,0E0,0E0,0E0,0E0,0E0,0E0,0E0,0E0,0E0,0E0],"parents":[2147483647,0,0,1,1,2,2,3,3,4,4,5,5,6,6,7,7,8,8,9,9,10,10,11,11,14,14],"right_children":[2,4,6,8,10,12,14,16,18,20,22,24,-1,-1,26,-1,-1,-1,-1,-1,-1,-1,-1,-1,-1,-1,-1],"split_conditions":[5E0,4.5E0,4.9457345E0,4.3333335E0,5E0,4.750022E0,4.506278E0,5E0,4.451546E0,4.9745083E0,4.009301E0,4.750022E0,-1.774658E-2,-7.8608375E-3,4E0,4.3337476E-2,1.6844982E-2,2.434169E-2,-0E0,2.2747952E-2,4.7702533E-3,-0E0,-1.5490061E-2,5.1516006E-3,-1.6878627E-2,-1.2202198E-2,-4.685626E-2],"split_indices":[5,4,0,5,6,4,4,1,0,4,5,1,0,0,6,0,0,0,0,0,0,0,0,0,0,0,0],"split_type":[0,0,0,0,0,0,0,0,0,0,0,0,0,0,0,0,0,0,0,0,0,0,0,0,0,0,0],"sum_hessian":[1.0581736E3,6.168323E2,4.4134134E2,2.809191E2,3.3591318E2,1.7784187E2,2.6349945E2,2.4146027E2,3.9458847E1,2.5077382E2,8.513935E1,7.9276695E1,9.856518E1,1.8583828E1,2.4491563E2,2.219011E2,1.9559168E1,3.33317E1,6.1271486E0,9.1484184E1,1.5928964E2,4.562251E1,3.951684E1,5.4495354E1,2.4781342E1,1.4297043E1,2.3061859E2],"tree_param":{"num_deleted":"0","num_feature":"7","num_nodes":"27","size_leaf_vector":"1"}},{"base_weights":[-2.5511857E-2,5.5376184E-1,-4.4163963E-1,8.4604234E-1,2.0293607E-1,-8.1457935E-2,-8.0150414E-1,8.7917644E-1,-0E0,3.739013E-1,6.7528794E-3,1.24828756E-1,-2.7603638E-1,-1.7763833E-2,-9.1081786E-1,4.5473024E-2,1.2540196E-2,1.4065746E-2,-6.024397E-3,4.2485697E-3,2.3223711E-2,6.5087844E-3,-4.4465186E-3,2.3634901E-2,-0E0,5.63445E-4,-1.7251171E-2,-1.4988857E-2,-4.7100514E-2],"categories":[],"categories_nodes":[],"categories_segments":[],"categories_sizes":[],"default_left":[0,0,0,0,0,0,0,0,0,0,0,0,0,0,0,0,0,0,0,0,0,0,0,0,0,0,0,0,0],"id":27,"left_children":[1,3,5,7,9,11,13,15,17,19,21,23,25,-1,27,-1,-1,-1,-1,-1,-1,-1,-1,-1,-1,-1,-1,-1,-1],"loss_changes":[2.5302135E2,4.249962E1,7.764543E1,5.8633423E0,6.0644636E0,1.2826063E1,1.1733688E1,2.7552795E0,5.65485E-1,1.6566925E0,1.3210648E0,5.818609E0,4.10396E0,0E0,2.864624E0,0E0,0E0,0E0,0E0,0E0,0E0,0E0,0E0,0E0,0E0,0E0,0E0,0E0,0E0],"parents":[2147483647,0,0,1,1,2,2,3,3,4,4,5,5,6,6,7,7,8,8,9,9,10,10,11,11,12,12,14,14],"right_children":[2,4,6,8,10,12,14,16,18,20,22,24,26,-1,28,-1,-1,-1,-1,-1,-1,-1,-1,-1,-1,-1,-1,-1,-1],"split_conditions":[4.315127E0,4.4863453E0,5E0,4.669233E0,4.32918E0,4.750022E0,4.669233E0,5E0,3.6754036E0,3.0155332E0,4.9716935E0,3.9187334E0,4.450874E0,-1.7763833E-2,4.506278E0,4.5473024E-2,1.2540196E-2,1.4065746E-2,-6.024397E-3,4.2485697E-3,2.3223711E-2,6.5087844E-3,-4.4465186E-3,2.3634901E-2,-0E0,5.63445E-4,-1.7251171E-2,-1.4988857E-2,-4.7100514E-2],"split_indices":[5,4,6,3,3,4,3,1,5,2,2,2,5,0,4,0,0,0,0,0,0,0,0,0,0,0,0,0,0],"split_type":[0,0,0,0,0,0,0,0,0,0,0,0,0,0,0,0,0,0,0,0,0,0,0,0,0,0,0,0,0],"sum_hessian":[1.0478373E3,4.3585068E2,6.119865E2,2.3360385E2,2.0224684E2,3.0947217E2,3.0251437E2,2.2381245E2,9.791394E0,1.01961464E2,1.0028538E2,1.454648E2,1.6400737E2,6.464304E1,2.3787132E2,2.0727347E2,1.6538986E1,4.4200416E0,5.3713527E0,3.1088593E1,7.087287E1,5.2599335E1,4.768604E1,3.4277348E1,1.11187454E2,2.7545542E1,1.3646184E2,1.8341553E1,2.1952977E2],"tree_param":{"num_deleted":"0","num_feature":"7","num_nodes":"29","size_leaf_vector":"1"}},{"base_weights":[7.056163E-3,4.2873198E-1,-5.7958037E-1,7.8397214E-1,1.3559406E-1,-2.236747E-1,-8.330534E-1,4.2449214E-2,3.3557722E-1,3.462922E-1,2.8431328E-2,-4.3652307E-2,-4.6075574E-1,-4.2281717E-1,-4.595426E-2,2.259049E-2,-0E0,2.2163024E-2,5.083864E-3,2.2441527E-2,-2.6774313E-4,8.712748E-3,-8.972065E-3,-6.5373513E-3,-2.8192956E-2,-0E0,-2.4784835E-2],"categories":[],"categories_nodes":[],"categories_segments":[],"categories_sizes":[],"default_left":[0,0,0,0,0,0,0,0,0,0,0,0,0,0,0,0,0,0,0,0,0,0,0,0,0,0,0],"id":28,"left_children":[1,3,5,7,9,11,13,-1,15,17,19,21,23,25,-1,-1,-1,-1,-1,-1,-1,-1,-1,-1,-1,-1,-1],"loss_changes":[2.5501152E2,6.0751793E1,3.6392242E1,5.9785767E0,6.79683E0,6.8109426E0,6.3188324E0,0E0,2.273573E0,1.4563208E0,4.1966805E0,3.3949406E0,1.1421757E0,1.4501696E0,0E0,0E0,0E0,0E0,0E0,0E0,0E0,0E0,0E0,0E0,0E0,0E0,0E0],"parents":[2147483647,0,0,1,1,2,2,3,3,4,4,5,5,6,6,8,8,9,9,10,10,11,11,12,12,13,13],"right_children":[2,4,6,8,10,12,14,-1,16,18,20,22,24,26,-1,-1,-1,-1,-1,-1,-1,-1,-1,-1,-1,-1,-1],"split_conditions":[5E0,4.5E0,4.971869E0,4.3333335E0,4.9745083E0,4.934039E0,5E0,4.2449214E-2,4.5798063E0,4.28017E0,3E0,4.0520296E0,4.0520296E0,4.506278E0,-4.595426E-2,2.259049E-2,-0E0,2.2163024E-2,5.083864E-3,2.2441527E-2,-2.6774313E-4,8.712748E-3,-8.972065E-3,-6.5373513E-3,-2.8192956E-2,-0E0,-2.4784835E-2],"split_indices":[5,4,0,5,4,2,6,0,2,5,6,4,1,4,0,0,0,0,0,0,0,0,0,0,0,0,0],"split_type":[0,0,0,0,0,0,0,0,0,0,0,0,0,0,0,0,0,0,0,0,0,0,0,0,0,0,0],"sum_hessian":[1.0293744E3,6.010876E2,4.282868E2,2.676401E2,3.3344748E2,1.8249748E2,2.4578934E2,2.2544466E2,4.2195454E1,1.0509922E2,2.2834827E2,1.0944445E2,7.3053024E1,5.1273235E1,1.945161E2,3.3184883E1,9.0105715E0,6.771313E1,3.738609E1,1.9977362E1,2.0837091E2,3.63852E1,7.305925E1,2.340367E1,4.9649357E1,9.216189E0,4.2057045E1],"tree_param":{"num_deleted":"0","num_feature":"7","num_nodes":"27","size_leaf_vector":"1"}},{"base_weights":[-1.5735338E-2,3.7902898E-1,-5.6377035E-1,7.387982E-1,9.8180704E-2,-1.5131907E-1,-7.5069994E-1,8.10306E-1,9.0899654E-2,2.775952E-1,-1.2926818E-2,2.8558973E-2,-4.7867456E-1,-2.794002E-1,-8.0722463E-1,4.3117505E-2,3.1032064E-3,1.9122222E-2,-0E0,1.9630099E-2,-2.7548207E-3,8.755559E-3,-4.766162E-3,1.2359668E-2,-3.2393434E-3,-3.3694846E-3,-3.0624913E-2,-0E0,-1.7425342E-2,-1.2173862E-2,-4.133382E-2],"categories":[],"categories_nodes":[],"categories_segments":[],"categories_sizes":[],"default_left":[0,0,0,0,0,0,0,0,0,0,0,0,0,0,0,0,0,0,0,0,0,0,0,0,0,0,0,0,0,0,0],"id":29,"left_children":[1,3,5,7,9,11,13,15,17,19,21,23,25,27,29,-1,-1,-1,-1,-1,-1,-1,-1,-1,-1,-1,-1,-1,-1,-1,-1],"loss_changes":[2.1979134E2,5.7584778E1,3.094519E1,9.874847E0,7.2045193E0,9.053391E0,5.244568E0,8.153793E0,1.0787842E0,6.038147E0,3.0356553E0,2.1844704E0,1.6030445E0,1.3846226E0,1.3937073E0,0E0,0E0,0E0,0E0,0E0,0E0,0E0,0E0,0E0,0E0,0E0,0E0,0E0,0E0,0E0,0E0],"parents":[2147483647,0,0,1,1,2,2,3,3,4,4,5,5,6,6,7,7,8,8,9,9,10,10,11,11,12,12,13,13,14,14],"right_children":[2,4,6,8,10,12,14,16,18,20,22,24,26,28,30,-1,-1,-1,-1,-1,-1,-1,-1,-1,-1,-1,-1,-1,-1,-1,-1],"split_conditions":[5E0,4.5E0,4.934039E0,4.662872E0,4.287432E0,5E0,4.506278E0,5E0,3.0155332E0,4.28017E0,4.9745083E0,4.0520296E0,4.506278E0,3.6728823E0,4.0520296E0,4.3117505E-2,3.1032064E-3,1.9122222E-2,-0E0,1.9630099E-2,-2.7548207E-3,8.755559E-3,-4.766162E-3,1.2359668E-2,-3.2393434E-3,-3.3694846E-3,-3.0624913E-2,-0E0,-1.7425342E-2,-1.2173862E-2,-4.133382E-2],"split_indices":[5,4,2,3,3,3,4,1,1,5,4,4,4,3,1,0,0,0,0,0,0,0,0,0,0,0,0,0,0,0,0],"split_type":[0,0,0,0,0,0,0,0,0,0,0,0,0,0,0,0,0,0,0,0,0,0,0,0,0,0,0,0,0,0,0],"sum_hessian":[1.01151196E3,5.860998E2,4.254121E2,2.5285043E2,3.332494E2,1.3678036E2,2.8863174E2,2.2462947E2,2.822096E1,1.3355063E2,1.9969876E2,8.513517E1,5.16452E1,3.556689E1,2.5306487E2,2.053274E2,1.9302086E1,7.52355E0,2.069741E1,1.0274941E2,3.0801218E1,5.313168E1,1.4656708E2,3.1084114E1,5.4051052E1,1.7230396E1,3.4414803E1,2.4125152E0,3.3154373E1,1.5567329E1,2.3749754E2],"tree_param":{"num_deleted":"0","num_feature":"7","num_nodes":"31","size_leaf_vector":"1"}},{"base_weights":[-3.645029E-3,4.3398836E-1,-4.4975865E-1,7.367669E-1,1.130741E-1,-1.2492011E-1,-7.2754973E-1,4.167303E-2,3.775611E-1,3.4652343E-1,-1.4454883E-1,2.4285367E-1,-1.815874E-1,-1.2117892E-2,-8.5273564E-1,-0E0,2.2179829E-2,4.112876E-3,2.3841672E-2,6.472811E-3,-1.1809577E-2,2.3976274E-2,-2.794061E-4,-0E0,-1.1661801E-2,-4.037182E-3,-4.322725E-2],"categories":[],"categories_nodes":[],"categories_segments":[],"categories_sizes":[],"default_left":[0,0,0,0,0,0,0,0,0,0,0,0,0,0,0,0,0,0,0,0,0,0,0,0,0,0,0],"id":30,"left_children":[1,3,5,7,9,11,13,-1,15,17,19,21,23,-1,25,-1,-1,-1,-1,-1,-1,-1,-1,-1,-1,-1,-1],"loss_changes":[1.954252E2,4.7056557E1,4.3096962E1,6.6802063E0,1.5446543E1,4.8240223E0,1.3531021E1,0E0,1.2641735E0,3.6079998E0,3.2308831E0,2.5871046E0,1.7432241E0,0E0,1.103363E0,0E0,0E0,0E0,0E0,0E0,0E0,0E0,0E0,0E0,0E0,0E0,0E0],"parents":[2147483647,0,0,1,1,2,2,3,3,4,4,5,5,6,6,8,8,9,9,10,10,11,11,12,12,14,14],"right_children":[2,4,6,8,10,12,14,-1,16,18,20,22,24,-1,26,-1,-1,-1,-1,-1,-1,-1,-1,-1,-1,-1,-1],"split_conditions":[4.6666665E0,4.5E0,5E0,4.3333335E0,4.28017E0,3E0,4.669233E0,4.167303E-2,3.5131083E0,3.6754036E0,3.0155332E0,4.934039E0,4.225773E0,-1.2117892E-2,4.015202E0,-0E0,2.2179829E-2,4.112876E-3,2.3841672E-2,6.472811E-3,-1.1809577E-2,2.3976274E-2,-2.794061E-4,-0E0,-1.1661801E-2,-4.037182E-3,-4.322725E-2],"split_indices":[3,4,6,5,5,6,5,0,4,5,2,2,5,0,4,0,0,0,0,0,0,0,0,0,0,0,0],"split_type":[0,0,0,0,0,0,0,0,0,0,0,0,0,0,0,0,0,0,0,0,0,0,0,0,0,0,0],"sum_hessian":[9.980886E2,5.0158865E2,4.9649997E2,2.5397064E2,2.4761801E2,2.3309944E2,2.6340054E2,1.9116023E2,6.281042E1,1.3372942E2,1.13888596E2,2.581071E1,2.0728873E2,5.8331802E1,2.0506873E2,1.2191296E1,5.0619125E1,5.0972057E1,8.275735E1,2.338426E1,9.050433E1,1.6534714E1,9.275996E0,5.292261E1,1.5436612E2,7.765003E0,1.9730373E2],"tree_param":{"num_deleted":"0","num_feature":"7","num_nodes":"27","size_leaf_vector":"1"}},{"base_weights":[-3.9835246E-3,3.7065712E-1,-5.2287257E-1,6.1227846E-1,-0E0,-1.74127E-1,-7.8062636E-1,7.51547E-1,1.7235748E-1,-4.254491E-1,2.5737721E-2,-0E0,-2.0575494E-2,-0E0,-8.35948E-1,4.1382406E-2,1.13935E-2,2.1245698E-2,1.7482629E-3,-0E0,-2.9323032E-2,7.472186E-3,-5.799353E-3,1.1058319E-2,-7.0051546E-3,-8.664836E-3,-4.316616E-2],"categories":[],"categories_nodes":[],"categories_segments":[],"categories_sizes":[],"default_left":[0,0,0,0,0,0,0,0,0,0,0,0,0,0,0,0,0,0,0,0,0,0,0,0,0,0,0],"id":31,"left_children":[1,3,5,7,9,11,13,15,17,19,21,23,-1,-1,25,-1,-1,-1,-1,-1,-1,-1,-1,-1,-1,-1,-1],"loss_changes":[1.9225548E2,5.161493E1,3.53211E1,1.9235626E1,2.785328E0,6.9090514E0,8.816788E0,8.917999E0,2.1670067E0,1.4932523E0,3.8810806E0,3.4078588E0,0E0,0E0,2.7580414E0,0E0,0E0,0E0,0E0,0E0,0E0,0E0,0E0,0E0,0E0,0E0,0E0],"parents":[2147483647,0,0,1,1,2,2,3,3,4,4,5,5,6,6,7,7,8,8,9,9,10,10,11,11,14,14],"right_children":[2,4,6,8,10,12,14,16,18,20,22,24,-1,-1,26,-1,-1,-1,-1,-1,-1,-1,-1,-1,-1,-1,-1],"split_conditions":[5E0,4.934039E0,4.971869E0,4.3158593E0,2.7986035E0,4.934039E0,4.0520296E0,4.315127E0,4E0,2.000804E0,4.225773E0,4.0520296E0,-2.0575494E-2,-0E0,4.506278E0,4.1382406E-2,1.13935E-2,2.1245698E-2,1.7482629E-3,-0E0,-2.9323032E-2,7.472186E-3,-5.799353E-3,1.1058319E-2,-7.0051546E-3,-8.664836E-3,-4.316616E-2],"split_indices":[5,4,0,0,5,2,1,5,6,1,5,4,0,0,4,0,0,0,0,0,0,0,0,0,0,0,0],"split_type":[0,0,0,0,0,0,0,0,0,0,0,0,0,0,0,0,0,0,0,0,0,0,0,0,0,0,0],"sum_hessian":[9.846939E2,5.6981775E2,4.1487613E2,3.4564294E2,2.2417482E2,1.8058562E2,2.3429053E2,2.583446E2,8.729834E1,1.3246871E1,2.1092795E2,1.0986347E2,7.072214E1,1.754153E1,2.16749E2,2.1869249E2,3.96521E1,2.4322414E1,6.2975925E1,2.7916112E0,1.0455259E1,1.1987011E2,9.105784E1,3.7488678E1,7.2374794E1,1.4204092E1,2.025449E2],"tree_param":{"num_deleted":"0","num_feature":"7","num_nodes":"27","size_leaf_vector":"1"}},{"base_weights":[-2.8667534E-3,3.3046624E-1,-5.289843E-1,6.553235E-1,6.136365E-2,-0E0,-6.456124E-1,8.166969E-1,2.0678939E-1,1.608992E-1,-1.6873465E-1,1.6340439E-1,-1.9133951E-1,-1.3455425E-2,-7.5488406E-1,4.2270783E-2,1.1999363E-2,1.586378E-2,-7.886155E-3,-0E0,9.646262E-3,-1.5461978E-3,-1.5352758E-2,2.2039471E-2,-1.8241389E-3,4.189191E-3,-1.3867992E-2,-1.7579526E-2,-4.121965E-2],"categories":[],"categories_nodes":[],"categories_segments":[],"categories_sizes":[],"default_left":[0,0,0,0,0,0,0,0,0,0,0,0,0,0,0,0,0,0,0,0,0,0,0,0,0,0,0,0,0],"id":32,"left_children":[1,3,5,7,9,11,13,15,17,19,21,23,25,-1,27,-1,-1,-1,-1,-1,-1,-1,-1,-1,-1,-1,-1,-1,-1],"loss_changes":[1.7051767E2,5.022104E1,2.3045685E1,1.6866226E1,7.54239E0,2.2599504E0,1.0316711E1,1.5021667E0,3.5047529E0,1.6490602E0,1.1237698E0,2.9450371E0,1.2638268E0,0E0,4.4392548E0,0E0,0E0,0E0,0E0,0E0,0E0,0E0,0E0,0E0,0E0,0E0,0E0,0E0,0E0],"parents":[2147483647,0,0,1,1,2,2,3,3,4,4,5,5,6,6,7,7,8,8,9,9,10,10,11,11,12,12,14,14],"right_children":[2,4,6,8,10,12,14,16,18,20,22,24,26,-1,28,-1,-1,-1,-1,-1,-1,-1,-1,-1,-1,-1,-1,-1,-1],"split_conditions":[4.942372E0,4.5E0,4.9745083E0,4.3333335E0,5E0,4.013952E0,4.669233E0,5E0,4.5971265E0,3.3457649E0,4.013952E0,4.669233E0,3.3457174E0,-1.3455425E-2,4.971869E0,4.2270783E-2,1.1999363E-2,1.586378E-2,-7.886155E-3,-0E0,9.646262E-3,-1.5461978E-3,-1.5352758E-2,2.2039471E-2,-1.8241389E-3,4.189191E-3,-1.3867992E-2,-1.7579526E-2,-4.121965E-2],"split_indices":[3,4,4,5,5,2,5,1,3,0,2,5,5,0,0,0,0,0,0,0,0,0,0,0,0,0,0,0,0],"split_type":[0,0,0,0,0,0,0,0,0,0,0,0,0,0,0,0,0,0,0,0,0,0,0,0,0,0,0,0,0],"sum_hessian":[9.6733E2,5.901401E2,3.7718994E2,2.631177E2,3.270224E2,6.91261E1,3.0806384E2,1.8939763E2,7.372006E1,2.346291E2,9.2393295E1,3.6043015E1,3.308308E1,7.485292E1,2.3321092E2,1.7425932E2,1.5138317E1,6.059261E1,1.312745E1,3.1210648E1,2.0341846E2,5.4803356E1,3.758994E1,1.8446918E1,1.7596096E1,2.5607631E0,3.0522318E1,4.300346E1,1.9020746E2],"tree_param":{"num_deleted":"0","num_feature":"7","num_nodes":"29","size_leaf_vector":"1"}},{"base_weights":[-1.822214E-2,4.0932906E-1,-4.368956E-1,6.792492E-1,1.3185441E-1,-1.4474487E-1,-7.126207E-1,7.184435E-1,6.216763E-2,2.398383E-1,-3.5115376E-2,-3.1978246E-2,-1.9504918E-2,-1.3324949E-1,-7.600474E-1,3.8286652E-2,1.5548827E-2,-8.196765E-3,1.22194495E-2,1.5795777E-2,1.0360652E-3,-1.8020103E-2,-0E0,1.3151783E-2,-4.4958456E-3,6.326227E-3,-1.8785326E-2,-2.196703E-2,-4.1350067E-2],"categories":[],"categories_nodes":[],"categories_segments":[],"categories_sizes":[],"default_left":[0,0,0,0,0,0,0,0,0,0,0,0,0,0,0,0,0,0,0,0,0,0,0,0,0,0,0,0,0],"id":33,"left_children":[1,3,5,7,9,11,13,15,17,19,21,23,-1,25,27,-1,-1,-1,-1,-1,-1,-1,-1,-1,-1,-1,-1,-1,-1],"loss_changes":[1.7250682E2,3.377955E1,3.754197E1,4.0965424E0,4.734237E0,5.941959E0,4.882759E0,2.2963257E0,1.0010892E0,1.9495497E0,1.7023513E0,2.7233167E0,0E0,2.0817316E0,2.2503967E0,0E0,0E0,0E0,0E0,0E0,0E0,0E0,0E0,0E0,0E0,0E0,0E0,0E0,0E0],"parents":[2147483647,0,0,1,1,2,2,3,3,4,4,5,5,6,6,7,7,8,8,9,9,10,10,11,11,13,13,14,14],"right_children":[2,4,6,8,10,12,14,16,18,20,22,24,-1,26,28,-1,-1,-1,-1,-1,-1,-1,-1,-1,-1,-1,-1,-1,-1],"split_conditions":[4.6666665E0,4.5E0,5E0,5E0,4.32918E0,5E0,4.506278E0,4.328683E0,3.5131083E0,4.1035104E0,3.6718445E0,3E0,-1.9504918E-2,4.0520296E0,5E0,3.8286652E-2,1.5548827E-2,-8.196765E-3,1.22194495E-2,1.5795777E-2,1.0360652E-3,-1.8020103E-2,-0E0,1.3151783E-2,-4.4958456E-3,6.326227E-3,-1.8785326E-2,-2.196703E-2,-4.1350067E-2],"split_indices":[3,4,0,6,3,6,4,3,4,0,0,6,0,1,6,0,0,0,0,0,0,0,0,0,0,0,0,0,0],"split_type":[0,0,0,0,0,0,0,0,0,0,0,0,0,0,0,0,0,0,0,0,0,0,0,0,0,0,0,0,0],"sum_hessian":[9.6066693E2,4.7294592E2,4.87721E2,2.3508154E2,2.3786438E2,2.4133885E2,2.4638216E2,2.1778374E2,1.7297794E1,1.5135916E2,8.650521E1,1.7266635E2,6.86725E1,2.2226574E1,2.2415558E2,1.8664278E2,3.1140972E1,2.9508522E0,1.4346943E1,1.0409161E2,4.7267555E1,1.233081E1,7.41744E1,2.207418E1,1.5059216E2,7.153284E0,1.507329E1,4.9517776E1,1.746378E2],"tree_param":{"num_deleted":"0","num_feature":"7","num_nodes":"29","size_leaf_vector":"1"}},{"base_weights":[-1.1857613E-2,2.930675E-1,-5.0626314E-1,5.790852E-1,6.558892E-2,-2.1144316E-1,-6.9624126E-1,7.131945E-1,1.3315246E-1,1.3605507E-1,-1.2737297E-1,2.2291869E-2,-2.4695735E-1,-8.097779E-2,-7.670781E-1,3.8649164E-2,-0E0,-0E0,1.576115E-2,1.1705734E-2,-2.217967E-3,-1.1839564E-2,-0E0,-0E0,-1.29998475E-2,-0E0,-8.354156E-3,-1.2428234E-3,-3.927246E-2],"categories":[],"categories_nodes":[],"categories_segments":[],"categories_sizes":[],"default_left":[0,0,0,0,0,0,0,0,0,0,0,0,0,0,0,0,0,0,0,0,0,0,0,0,0,0,0,0,0],"id":34,"left_children":[1,3,5,7,9,11,13,15,17,19,21,-1,23,25,27,-1,-1,-1,-1,-1,-1,-1,-1,-1,-1,-1,-1,-1,-1],"loss_changes":[1.4381197E2,3.6773586E1,1.8444801E1,1.34543915E1,4.5516562E0,3.2505832E0,7.6958084E0,1.0291992E1,1.973056E0,4.946796E0,8.44365E-1,0E0,8.654041E-1,4.836371E-1,1.9512482E0,0E0,0E0,0E0,0E0,0E0,0E0,0E0,0E0,0E0,0E0,0E0,0E0,0E0,0E0],"parents":[2147483647,0,0,1,1,2,2,3,3,4,4,5,5,6,6,7,7,8,8,9,9,10,10,12,12,13,13,14,14],"right_children":[2,4,6,8,10,12,14,16,18,20,22,-1,24,26,28,-1,-1,-1,-1,-1,-1,-1,-1,-1,-1,-1,-1,-1,-1],"split_conditions":[5E0,4.4863453E0,5E0,4.3333335E0,5E0,2.0397604E0,4.013952E0,5E0,4.007175E0,4.9345527E0,4.013952E0,2.2291869E-2,2E0,4.015202E0,4.0520296E0,3.8649164E-2,-0E0,-0E0,1.576115E-2,1.1705734E-2,-2.217967E-3,-1.1839564E-2,-0E0,-0E0,-1.29998475E-2,-0E0,-8.354156E-3,-1.2428234E-3,-3.927246E-2],"split_indices":[3,4,6,3,6,2,2,1,0,1,2,0,6,4,1,0,0,0,0,0,0,0,0,0,0,0,0,0,0],"split_type":[0,0,0,0,0,0,0,0,0,0,0,0,0,0,0,0,0,0,0,0,0,0,0,0,0,0,0,0,0],"sum_hessian":[9.483994E2,5.844497E2,3.639497E2,2.5408199E2,3.303677E2,1.4787616E2,2.1607353E2,1.9126006E2,6.2821915E1,2.4988231E2,8.04854E1,3.8556893E0,1.4402048E2,2.552552E1,1.9054802E2,1.7665024E2,1.460983E1,3.3427975E1,2.9393942E1,1.6766124E2,8.222107E1,3.669624E1,4.3789158E1,3.948864E0,1.4007161E2,3.6653395E0,2.186018E1,8.996983E0,1.8155103E2],"tree_param":{"num_deleted":"0","num_feature":"7","num_nodes":"29","size_leaf_vector":"1"}},{"base_weights":[-1.6752368E-2,3.072664E-1,-4.91743E-1,6.014695E-1,9.306099E-2,-1.7118071E-1,-7.524196E-1,6.4784133E-1,1.1150446E-1,1.7049374E-1,-1.11647315E-1,-4.0656958E-2,-1.6536565E-2,-3.8592416E-1,-4.1934576E-2,3.370521E-2,-0E0,-3.234903E-2,1.9667087E-2,1.7530499E-2,2.7852566E-3,-0E0,-7.1905693E-3,3.948318E-4,-1.6236171E-2,-0E0,-2.0438544E-2],"categories":[],"categories_nodes":[],"categories_segments":[],"categories_sizes":[],"default_left":[0,0,0,0,0,0,0,0,0,0,0,0,0,0,0,0,0,0,0,0,0,0,0,0,0,0,0],"id":35,"left_children":[1,3,5,7,9,11,13,15,17,19,21,23,-1,25,-1,-1,-1,-1,-1,-1,-1,-1,-1,-1,-1,-1,-1],"loss_changes":[1.4426169E2,3.3405888E1,2.986699E1,3.5846863E0,5.30717E0,2.9734406E0,4.1900177E0,3.531227E0,5.330993E0,4.262667E0,5.6091046E-1,2.1244447E0,0E0,4.6246338E-1,0E0,0E0,0E0,0E0,0E0,0E0,0E0,0E0,0E0,0E0,0E0,0E0,0E0],"parents":[2147483647,0,0,1,1,2,2,3,3,4,4,5,5,6,6,7,7,8,8,9,9,10,10,11,11,13,13],"right_children":[2,4,6,8,10,12,14,16,18,20,22,24,-1,26,-1,-1,-1,-1,-1,-1,-1,-1,-1,-1,-1,-1,-1],"split_conditions":[5E0,4.5E0,4.9457345E0,5E0,5E0,4.9156065E0,5E0,4.6511726E0,3.0155332E0,4.9745083E0,3.6718445E0,5E0,-1.6536565E-2,3E0,-4.1934576E-2,3.370521E-2,-0E0,-3.234903E-2,1.9667087E-2,1.7530499E-2,2.7852566E-3,-0E0,-7.1905693E-3,3.948318E-4,-1.6236171E-2,-0E0,-2.0438544E-2],"split_indices":[5,4,0,1,6,2,6,0,2,4,0,6,0,6,0,0,0,0,0,0,0,0,0,0,0,0,0],"split_type":[0,0,0,0,0,0,0,0,0,0,0,0,0,0,0,0,0,0,0,0,0,0,0,0,0,0,0],"sum_hessian":[9.322364E2,5.5197394E2,3.8026248E2,2.2758768E2,3.2438626E2,1.7499629E2,2.0526619E2,2.0377983E2,2.3807852E1,2.4261353E2,8.177273E1,1.04817535E2,7.017876E1,4.757943E1,1.5768675E2,1.9240614E2,1.1373691E1,4.0894156E0,1.9718435E1,8.537529E1,1.5723824E2,7.2673597E0,7.450536E1,8.4804634E1,2.0012903E1,3.3669388E0,4.421249E1],"tree_param":{"num_deleted":"0","num_feature":"7","num_nodes":"27","size_leaf_vector":"1"}},{"base_weights":[2.6829533E-2,3.5593262E-1,-4.5141578E-1,6.482953E-1,1.5056114E-1,-1.3124825E-1,-7.091639E-1,7.513695E-1,1.40343215E-2,2.5306088E-1,-5.588448E-4,2.1559041E-2,-1.2799975E-2,-1.4936526E-2,-7.855737E-1,4.0071543E-2,1.5119793E-3,1.0670284E-3,1.9460088E-2,2.3321012E-2,-2.3601125E-3,1.439814E-2,-0E0,-0E0,-4.1853968E-2],"categories":[],"categories_nodes":[],"categories_segments":[],"categories_sizes":[],"default_left":[0,0,0,0,0,0,0,0,0,0,0,0,0,0,0,0,0,0,0,0,0,0,0,0,0],"id":36,"left_children":[1,3,5,7,9,11,13,15,-1,17,19,21,-1,-1,23,-1,-1,-1,-1,-1,-1,-1,-1,-1,-1],"loss_changes":[1.4449507E2,3.1110237E1,2.8914001E1,5.9669724E0,5.5714674E0,3.8037837E0,3.811737E0,5.193428E0,0E0,5.7146406E0,1.9710364E0,9.929184E-1,0E0,0E0,9.282852E0,0E0,0E0,0E0,0E0,0E0,0E0,0E0,0E0,0E0,0E0],"parents":[2147483647,0,0,1,1,2,2,3,3,4,4,5,5,6,6,7,7,9,9,10,10,11,11,14,14],"right_children":[2,4,6,8,10,12,14,16,-1,18,20,22,-1,-1,24,-1,-1,-1,-1,-1,-1,-1,-1,-1,-1],"split_conditions":[4.981027E0,4.5E0,5E0,4.3333335E0,4.28017E0,5E0,4.669233E0,4.3333335E0,1.40343215E-2,3.6754036E0,3E0,3.6728823E0,-1.2799975E-2,-1.4936526E-2,4.0520296E0,4.0071543E-2,1.5119793E-3,1.0670284E-3,1.9460088E-2,2.3321012E-2,-2.3601125E-3,1.439814E-2,-0E0,-0E0,-4.1853968E-2],"split_indices":[5,4,6,3,5,4,3,0,0,5,6,3,0,0,1,0,0,0,0,0,0,0,0,0,0],"split_type":[0,0,0,0,0,0,0,0,0,0,0,0,0,0,0,0,0,0,0,0,0,0,0,0,0],"sum_hessian":[9.165151E2,5.455958E2,3.7091928E2,2.1988766E2,3.2570813E2,1.6980751E2,2.0111179E2,1.6608002E2,5.3807648E1,2.0141158E2,1.2429656E2,7.0451454E1,9.935606E1,3.6933212E1,1.6417857E2,1.5114458E2,1.4935437E1,8.174567E1,1.196659E2,6.3144984E0,1.1798206E2,1.0794596E1,5.9656857E1,9.296192E0,1.5488239E2],"tree_param":{"num_deleted":"0","num_feature":"7","num_nodes":"25","size_leaf_vector":"1"}},{"base_weights":[-0E0,4.4128373E-1,-3.049051E-1,6.9978374E-1,1.9109344E-1,-5.115182E-2,-6.0213876E-1,7.7422434E-1,4.737303E-2,3.316848E-1,3.428404E-2,8.7177984E-2,-1.8921186E-1,-2.7578452E-1,-7.011728E-1,4.0409923E-2,6.5699075E-3,1.8784786E-2,-4.136492E-3,5.9269834E-4,2.3412794E-2,2.2004116E-2,-4.4471803E-5,1.0747977E-2,-0E0,1.6331816E-3,-1.2484816E-2,-1.7644253E-2,-0E0,-9.848385E-3,-3.7390083E-2],"categories":[],"categories_nodes":[],"categories_segments":[],"categories_sizes":[],"default_left":[0,0,0,0,0,0,0,0,0,0,0,0,0,0,0,0,0,0,0,0,0,0,0,0,0,0,0,0,0,0,0],"id":37,"left_children":[1,3,5,7,9,11,13,15,17,19,21,23,25,27,29,-1,-1,-1,-1,-1,-1,-1,-1,-1,-1,-1,-1,-1,-1,-1,-1],"loss_changes":[1.2556922E2,2.269114E1,4.029782E1,7.1969376E0,3.6514792E0,6.0130043E0,5.879753E0,2.223175E0,1.6303554E0,3.4481726E0,2.3653083E0,1.8808833E0,2.6688056E0,1.0778823E0,2.886757E0,0E0,0E0,0E0,0E0,0E0,0E0,0E0,0E0,0E0,0E0,0E0,0E0,0E0,0E0,0E0,0E0],"parents":[2147483647,0,0,1,1,2,2,3,3,4,4,5,5,6,6,7,7,8,8,9,9,10,10,11,11,12,12,13,13,14,14],"right_children":[2,4,6,8,10,12,14,16,18,20,22,24,26,28,30,-1,-1,-1,-1,-1,-1,-1,-1,-1,-1,-1,-1,-1,-1,-1,-1],"split_conditions":[4.3333335E0,4.5E0,5E0,4.662872E0,4.32918E0,5E0,4.669233E0,5E0,4E0,3.6728823E0,3E0,4.9156065E0,4.450874E0,4.7489467E0,4.669233E0,4.0409923E-2,6.5699075E-3,1.8784786E-2,-4.136492E-3,5.9269834E-4,2.3412794E-2,2.2004116E-2,-4.4471803E-5,1.0747977E-2,-0E0,1.6331816E-3,-1.2484816E-2,-1.7644253E-2,-0E0,-9.848385E-3,-3.7390083E-2],"split_indices":[5,4,6,3,3,4,3,1,6,3,6,5,5,0,5,0,0,0,0,0,0,0,0,0,0,0,0,0,0,0,0],"split_type":[0,0,0,0,0,0,0,0,0,0,0,0,0,0,0,0,0,0,0,0,0,0,0,0,0,0,0,0,0,0,0],"sum_hessian":[9.3065906E2,3.7985922E2,5.507998E2,1.8168967E2,1.9816956E2,3.0162512E2,2.4917468E2,1.6010165E2,2.1588005E1,9.696105E1,1.012085E2,1.4368034E2,1.5794478E2,6.3913605E1,1.8526108E2,1.4717E2,1.2931667E1,9.699164E0,1.1888841E1,3.4432655E1,6.2528397E1,1.1245011E1,8.9963486E1,6.2060883E1,8.161947E1,2.7890854E1,1.3005392E2,4.630687E1,1.7606735E1,2.1984362E1,1.6327672E2],"tree_param":{"num_deleted":"0","num_feature":"7","num_nodes":"31","size_leaf_vector":"1"}},{"base_weights":[1.05470875E-2,3.1705058E-1,-4.381654E-1,5.078945E-1,4.0844038E-2,-1.6939777E-1,-6.530982E-1,6.190911E-1,1.0516161E-1,1.4224157E-1,-6.765134E-2,-0E0,-2.3748334E-1,-2.8994563E-1,-7.58379E-1,3.4635965E-2,1.4497497E-2,-0E0,1.0390378E-2,-3.0912012E-3,1.0061119E-2,-1.4416681E-2,-0E0,-1.8265834E-2,6.2835254E-3,-2.8933516E-2,-8.765398E-3,-0E0,-1.6610427E-2,-0E0,-3.920746E-2],"categories":[],"categories_nodes":[],"categories_segments":[],"categories_sizes":[],"default_left":[0,0,0,0,0,0,0,0,0,0,0,0,0,0,0,0,0,0,0,0,0,0,0,0,0,0,0,0,0,0,0],"id":38,"left_children":[1,3,5,7,9,11,13,15,17,19,21,23,25,27,29,-1,-1,-1,-1,-1,-1,-1,-1,-1,-1,-1,-1,-1,-1,-1,-1],"loss_changes":[1.2486806E2,2.7502804E1,1.9379066E1,1.26491165E1,2.6671457E0,2.1327353E0,5.214241E0,4.0990067E0,7.623859E-1,1.8861203E0,1.218993E0,2.0477982E0,9.3518305E-1,8.6574507E-1,2.2811356E0,0E0,0E0,0E0,0E0,0E0,0E0,0E0,0E0,0E0,0E0,0E0,0E0,0E0,0E0,0E0,0E0],"parents":[2147483647,0,0,1,1,2,2,3,3,4,4,5,5,6,6,7,7,8,8,9,9,10,10,11,11,12,12,13,13,14,14],"right_children":[2,4,6,8,10,12,14,16,18,20,22,24,26,28,30,-1,-1,-1,-1,-1,-1,-1,-1,-1,-1,-1,-1,-1,-1,-1,-1],"split_conditions":[5E0,4.9745083E0,4.9457345E0,4.3333335E0,4.918602E0,4.015202E0,5E0,4.3333335E0,4.007175E0,3.0155332E0,4.007175E0,3.5131083E0,3.0155332E0,4.015202E0,4.506278E0,3.4635965E-2,1.4497497E-2,-0E0,1.0390378E-2,-3.0912012E-3,1.0061119E-2,-1.4416681E-2,-0E0,-1.8265834E-2,6.2835254E-3,-2.8933516E-2,-8.765398E-3,-0E0,-1.6610427E-2,-0E0,-3.920746E-2],"split_indices":[5,4,0,5,2,4,6,0,0,1,0,4,1,4,4,0,0,0,0,0,0,0,0,0,0,0,0,0,0,0,0],"split_type":[0,0,0,0,0,0,0,0,0,0,0,0,0,0,0,0,0,0,0,0,0,0,0,0,0,0,0,0,0,0,0],"sum_hessian":[9.0693964E2,5.4174536E2,3.651943E2,3.1542102E2,2.2632431E2,1.674932E2,1.977011E2,2.4270895E2,7.271208E1,1.2629824E2,1.0002607E2,4.5126762E1,1.2236644E2,4.9853992E1,1.478471E2,1.888715E2,5.383745E1,3.809629E1,3.4615788E1,2.1378246E1,1.0492E2,1.8523737E1,8.150233E1,9.310193E0,3.581657E1,1.15567465E1,1.1080969E2,5.18295E0,4.4671043E1,8.457893E0,1.393892E2],"tree_param":{"num_deleted":"0","num_feature":"7","num_nodes":"31","size_leaf_vector":"1"}},{"base_weights":[1.0102506E-2,4.0824893E-1,-2.6991045E-1,6.3248473E-1,1.9873963E-1,-5.190632E-2,-5.3179175E-1,6.7013526E-1,-0E0,-0E0,3.2653862E-1,4.9089406E-2,-1.5230784E-1,-1.7821628E-1,-6.442804E-1,3.5000756E-2,-0E0,8.880949E-3,-9.76782E-3,6.9787577E-3,-1.1175491E-2,2.3854371E-2,6.6449856E-3,-1.2965576E-3,8.783882E-3,-2.5909182E-3,-1.6359625E-2,-1.4639794E-2,-0E0,-2.5913264E-3,-3.5398345E-2],"categories":[],"categories_nodes":[],"categories_segments":[],"categories_sizes":[],"default_left":[0,0,0,0,0,0,0,0,0,0,0,0,0,0,0,0,0,0,0,0,0,0,0,0,0,0,0,0,0,0,0],"id":39,"left_children":[1,3,5,7,9,11,13,15,17,19,21,23,25,27,29,-1,-1,-1,-1,-1,-1,-1,-1,-1,-1,-1,-1,-1,-1,-1,-1],"loss_changes":[9.968814E1,1.5600941E1,2.8516186E1,4.320572E0,4.645221E0,3.1549911E0,7.4329834E0,3.522606E0,4.3253353E-1,2.5683408E0,2.1691723E0,1.6158246E0,1.9786503E0,8.018426E-1,5.5156784E0,0E0,0E0,0E0,0E0,0E0,0E0,0E0,0E0,0E0,0E0,0E0,0E0,0E0,0E0,0E0,0E0],"parents":[2147483647,0,0,1,1,2,2,3,3,4,4,5,5,6,6,7,7,8,8,9,9,10,10,11,11,12,12,13,13,14,14],"right_children":[2,4,6,8,10,12,14,16,18,20,22,24,26,28,30,-1,-1,-1,-1,-1,-1,-1,-1,-1,-1,-1,-1,-1,-1,-1,-1],"split_conditions":[4.3333335E0,4.5E0,5E0,4.669233E0,3.6754036E0,5E0,4.669233E0,5E0,4E0,4.013952E0,4.3158593E0,4.007175E0,4.971869E0,4.013952E0,4.669233E0,3.5000756E-2,-0E0,8.880949E-3,-9.76782E-3,6.9787577E-3,-1.1175491E-2,2.3854371E-2,6.6449856E-3,-1.2965576E-3,8.783882E-3,-2.5909182E-3,-1.6359625E-2,-1.4639794E-2,-0E0,-2.5913264E-3,-3.5398345E-2],"split_indices":[5,4,6,3,5,4,3,6,6,2,0,0,0,2,5,0,0,0,0,0,0,0,0,0,0,0,0,0,0,0,0],"split_type":[0,0,0,0,0,0,0,0,0,0,0,0,0,0,0,0,0,0,0,0,0,0,0,0,0,0,0,0,0,0,0],"sum_hessian":[8.889808E2,3.6975262E2,5.1922815E2,1.7265811E2,1.9709451E2,2.8841092E2,2.3081726E2,1.6327397E2,9.384141E0,8.137974E1,1.1571477E2,1.3419693E2,1.5421399E2,6.0851917E1,1.6996533E2,1.5392564E2,9.348331E0,4.280136E0,5.104005E0,5.3716846E1,2.7662895E1,5.7236145E1,5.8478622E1,7.5401276E1,5.8795654E1,1.07020515E2,4.7193466E1,3.0468563E1,3.0383354E1,2.1245525E1,1.4871982E2],"tree_param":{"num_deleted":"0","num_feature":"7","num_nodes":"31","size_leaf_vector":"1"}},{"base_weights":[-4.220913E-3,2.5500387E-1,-3.845804E-1,5.807753E-1,4.223331E-2,-1.0317741E-1,-6.41438E-1,6.3089585E-1,-0E0,3.176286E-1,2.0110167E-3,2.464254E-1,-1.4252873E-1,-3.1578804E-3,-7.181896E-1,3.3757795E-2,1.4306026E-2,7.1407477E-3,-1.4022839E-2,-0E0,2.4395969E-2,3.9131995E-3,-4.587305E-3,-0E0,2.0922551E-2,-2.2384182E-3,-1.1511923E-2,-0E0,-3.65185E-2],"categories":[],"categories_nodes":[],"categories_segments":[],"categories_sizes":[],"default_left":[0,0,0,0,0,0,0,0,0,0,0,0,0,0,0,0,0,0,0,0,0,0,0,0,0,0,0,0,0],"id":40,"left_children":[1,3,5,7,9,11,13,15,17,19,21,23,25,-1,27,-1,-1,-1,-1,-1,-1,-1,-1,-1,-1,-1,-1,-1,-1],"loss_changes":[8.658431E1,3.459477E1,2.4294846E1,5.8746796E0,2.8852491E0,2.2636812E0,6.495659E0,9.720154E-1,7.651396E-1,1.5009689E0,2.0598986E0,5.4929554E-1,8.670769E-1,0E0,1.1730881E0,0E0,0E0,0E0,0E0,0E0,0E0,0E0,0E0,0E0,0E0,0E0,0E0,0E0,0E0],"parents":[2147483647,0,0,1,1,2,2,3,3,4,4,5,5,6,6,7,7,8,8,9,9,10,10,11,11,12,12,14,14],"right_children":[2,4,6,8,10,12,14,16,18,20,22,24,26,-1,28,-1,-1,-1,-1,-1,-1,-1,-1,-1,-1,-1,-1,-1,-1],"split_conditions":[5E0,4.4863453E0,5E0,5E0,3E0,2.0397604E0,4.3672986E0,4.315127E0,4.013952E0,3.3457649E0,4.225773E0,2.000804E0,4.654421E0,-3.1578804E-3,4.015202E0,3.3757795E-2,1.4306026E-2,7.1407477E-3,-1.4022839E-2,-0E0,2.4395969E-2,3.9131995E-3,-4.587305E-3,-0E0,2.0922551E-2,-2.2384182E-3,-1.1511923E-2,-0E0,-3.65185E-2],"split_indices":[5,4,6,6,6,2,0,5,2,0,5,1,0,0,4,0,0,0,0,0,0,0,0,0,0,0,0,0,0],"split_type":[0,0,0,0,0,0,0,0,0,0,0,0,0,0,0,0,0,0,0,0,0,0,0,0,0,0,0,0,0],"sum_hessian":[8.7280005E2,5.161928E2,3.5660727E2,1.9929477E2,3.1689804E2,1.7480089E2,1.8180637E2,1.8343852E2,1.5856248E1,3.2849686E1,2.8404834E2,1.1816722E1,1.6298418E2,2.4669706E1,1.5713667E2,1.5366612E2,2.9772411E1,1.0824579E1,5.0316687E0,1.3775894E1,1.9073792E1,1.6840141E2,1.1564694E2,5.6083694E0,6.2083526E0,8.985482E1,7.312935E1,5.779392E0,1.5135727E2],"tree_param":{"num_deleted":"0","num_feature":"7","num_nodes":"29","size_leaf_vector":"1"}},{"base_weights":[-0E0,2.5230014E-1,-3.7734365E-1,5.4528546E-1,6.688011E-2,-9.099683E-2,-6.328094E-1,6.100629E-1,-0E0,2.2972795E-1,-0E0,3.637547E-3,-2.3675606E-1,-1.3418821E-2,-7.399658E-1,3.425396E-2,4.9092607E-3,-3.65138E-2,1.1826236E-2,1.4678671E-2,-0E0,2.118313E-2,-2.7099575E-3,-1.9556278E-2,3.5706353E-3,-0E0,-1.9994635E-2,-0E0,-3.817291E-2],"categories":[],"categories_nodes":[],"categories_segments":[],"categories_sizes":[],"default_left":[0,0,0,0,0,0,0,0,0,0,0,0,0,0,0,0,0,0,0,0,0,0,0,0,0,0,0,0,0],"id":41,"left_children":[1,3,5,7,9,11,13,15,17,19,21,23,25,-1,27,-1,-1,-1,-1,-1,-1,-1,-1,-1,-1,-1,-1,-1,-1],"loss_changes":[8.518915E1,2.7632393E1,2.4838486E1,6.0082703E0,4.0061545E0,2.88435E0,4.942604E0,5.6807327E0,3.862161E0,1.3338633E0,4.743096E0,2.0981526E0,3.629366E0,0E0,2.5755005E0,0E0,0E0,0E0,0E0,0E0,0E0,0E0,0E0,0E0,0E0,0E0,0E0,0E0,0E0],"parents":[2147483647,0,0,1,1,2,2,3,3,4,4,5,5,6,6,7,7,8,8,9,9,10,10,11,11,12,12,14,14],"right_children":[2,4,6,8,10,12,14,16,18,20,22,24,26,-1,28,-1,-1,-1,-1,-1,-1,-1,-1,-1,-1,-1,-1,-1,-1],"split_conditions":[4.981027E0,4.5E0,4.971869E0,5E0,4.9745083E0,4.842031E0,5E0,4.3333335E0,3.0155332E0,4.662872E0,3E0,2.000804E0,4.013952E0,-1.3418821E-2,4.0520296E0,3.425396E-2,4.9092607E-3,-3.65138E-2,1.1826236E-2,1.4678671E-2,-0E0,2.118313E-2,-2.7099575E-3,-1.9556278E-2,3.5706353E-3,-0E0,-1.9994635E-2,-0E0,-3.817291E-2],"split_indices":[5,4,0,1,4,1,6,0,2,0,6,1,2,0,1,0,0,0,0,0,0,0,0,0,0,0,0,0,0],"split_type":[0,0,0,0,0,0,0,0,0,0,0,0,0,0,0,0,0,0,0,0,0,0,0,0,0,0,0,0,0],"sum_hessian":[8.897811E2,5.3073505E2,3.5904608E2,2.0049522E2,3.3023984E2,1.738546E2,1.851915E2,1.760472E2,2.4448025E1,1.02651184E2,2.2758865E2,9.790106E1,7.595354E1,4.7655987E1,1.375355E2,1.4813477E2,2.7912426E1,3.3992038E0,2.104882E1,7.6412186E1,2.6238997E1,2.1196009E1,2.0639264E2,9.112815E0,8.8788246E1,2.8396835E1,4.75567E1,6.372168E0,1.3116333E2],"tree_param":{"num_deleted":"0","num_feature":"7","num_nodes":"29","size_leaf_vector":"1"}},{"base_weights":[-1.3592841E-2,2.270972E-1,-3.7874097E-1,3.9130905E-1,4.1365623E-2,-1.0736542E-1,-6.320595E-1,5.098078E-1,-9.3838625E-2,-4.75718E-2,9.884229E-2,9.49198E-2,-1.745737E-1,-1.6865063E-3,-7.141519E-1,2.978932E-2,-3.2905017E-3,-0E0,-1.7049955E-2,1.7661447E-2,-4.8457654E-3,1.162989E-2,-8.3573605E-4,-1.7410804E-2,1.4700304E-2,-0E0,-9.839286E-3,-7.195717E-3,-3.7154485E-2],"categories":[],"categories_nodes":[],"categories_segments":[],"categories_sizes":[],"default_left":[0,0,0,0,0,0,0,0,0,0,0,0,0,0,0,0,0,0,0,0,0,0,0,0,0,0,0,0,0],"id":42,"left_children":[1,3,5,7,9,11,13,15,17,19,21,23,25,-1,27,-1,-1,-1,-1,-1,-1,-1,-1,-1,-1,-1,-1,-1,-1],"loss_changes":[7.612034E1,1.487114E1,2.2214409E1,1.632465E1,1.3853619E0,2.527133E0,7.055214E0,1.2654308E1,1.7637509E0,1.2599928E0,3.0464394E0,3.3165753E0,6.7374325E-1,0E0,1.1120071E0,0E0,0E0,0E0,0E0,0E0,0E0,0E0,0E0,0E0,0E0,0E0,0E0,0E0,0E0],"parents":[2147483647,0,0,1,1,2,2,3,3,4,4,5,5,6,6,7,7,8,8,9,9,10,10,11,11,12,12,14,14],"right_children":[2,4,6,8,10,12,14,16,18,20,22,24,26,-1,28,-1,-1,-1,-1,-1,-1,-1,-1,-1,-1,-1,-1,-1,-1],"split_conditions":[4.9156065E0,4.3333335E0,5E0,4.955448E0,4.007175E0,4.246211E0,4.3672986E0,4.3333335E0,4.1836495E0,2E0,4.831414E0,3E0,3E0,-1.6865063E-3,4.3370075E0,2.978932E-2,-3.2905017E-3,-0E0,-1.7049955E-2,1.7661447E-2,-4.8457654E-3,1.162989E-2,-8.3573605E-4,-1.7410804E-2,1.4700304E-2,-0E0,-9.839286E-3,-7.195717E-3,-3.7154485E-2],"split_indices":[5,3,6,1,0,3,0,0,5,6,3,6,6,0,3,0,0,0,0,0,0,0,0,0,0,0,0,0,0],"split_type":[0,0,0,0,0,0,0,0,0,0,0,0,0,0,0,0,0,0,0,0,0,0,0,0,0,0,0,0,0],"sum_hessian":[8.599608E2,5.153215E2,3.4463937E2,2.6698892E2,2.4833255E2,1.711389E2,1.7350046E2,2.1783517E2,4.9153763E1,8.391842E1,1.6441412E2,3.511828E1,1.3602063E2,2.4115532E1,1.4938493E2,1.9098788E2,2.684729E1,3.1858494E1,1.729527E1,3.9538796E0,7.996455E1,8.293621E1,8.147791E1,7.53075E0,2.7587528E1,1.4074755E1,1.2194587E2,1.2504766E1,1.3688016E2],"tree_param":{"num_deleted":"0","num_feature":"7","num_nodes":"29","size_leaf_vector":"1"}},{"base_weights":[-1.4658495E-2,3.5909572E-1,-2.7742553E-1,6.271103E-1,1.2876055E-1,-5.475652E-2,-5.6368524E-1,6.830047E-1,-3.0093247E-2,2.5274968E-1,-0E0,5.710208E-2,-2.0652816E-1,-2.1274939E-1,-6.906791E-1,3.513761E-2,-0E0,7.42382E-4,-2.0930301E-2,-0E0,1.6362455E-2,-2.6115028E-3,3.6498283E-3,1.005137E-2,-1.7606119E-3,4.382412E-3,-1.1277293E-2,-2.4327852E-2,-4.637809E-3,-0E0,-3.7207976E-2],"categories":[],"categories_nodes":[],"categories_segments":[],"categories_sizes":[],"default_left":[0,0,0,0,0,0,0,0,0,0,0,0,0,0,0,0,0,0,0,0,0,0,0,0,0,0,0,0,0,0,0],"id":43,"left_children":[1,3,5,7,9,11,13,15,17,19,21,23,25,27,29,-1,-1,-1,-1,-1,-1,-1,-1,-1,-1,-1,-1,-1,-1,-1,-1],"loss_changes":[8.417727E1,2.007108E1,3.106055E1,7.1396446E0,2.8506145E0,5.252123E0,7.7039948E0,1.3805847E0,1.0158855E0,1.2817092E0,4.183458E-1,2.516252E0,1.1199656E0,8.9158463E-1,5.375984E0,0E0,0E0,0E0,0E0,0E0,0E0,0E0,0E0,0E0,0E0,0E0,0E0,0E0,0E0,0E0,0E0],"parents":[2147483647,0,0,1,1,2,2,3,3,4,4,5,5,6,6,7,7,8,8,9,9,10,10,11,11,12,12,13,13,14,14],"right_children":[2,4,6,8,10,12,14,16,18,20,22,24,26,28,30,-1,-1,-1,-1,-1,-1,-1,-1,-1,-1,-1,-1,-1,-1,-1,-1],"split_conditions":[4.3333335E0,4.5E0,5E0,4.669233E0,4.32918E0,4.9345527E0,4.669233E0,5E0,4E0,3.0155332E0,4.0520296E0,4.981027E0,2.0397604E0,4.36008E0,4.506278E0,3.513761E-2,-0E0,7.42382E-4,-2.0930301E-2,-0E0,1.6362455E-2,-2.6115028E-3,3.6498283E-3,1.005137E-2,-1.7606119E-3,4.382412E-3,-1.1277293E-2,-2.4327852E-2,-4.637809E-3,-0E0,-3.7207976E-2],"split_indices":[5,4,6,3,3,1,3,6,6,2,1,5,2,5,4,0,0,0,0,0,0,0,0,0,0,0,0,0,0,0,0],"split_type":[0,0,0,0,0,0,0,0,0,0,0,0,0,0,0,0,0,0,0,0,0,0,0,0,0,0,0,0,0,0,0],"sum_hessian":[8.5602783E2,3.5003464E2,5.059932E2,1.5668517E2,1.9334947E2,2.8945245E2,2.1654074E2,1.471591E2,9.526061E0,9.379233E1,9.955714E1,1.5954095E2,1.299115E2,6.269293E1,1.5384781E2,1.3920656E2,7.9525576E0,5.1477504E0,4.3783107E0,2.7635147E1,6.615718E1,5.0181194E1,4.9375942E1,6.976274E1,8.977821E1,2.0252838E0,1.27886215E2,1.2493358E1,5.019957E1,1.4323588E1,1.3952422E2],"tree_param":{"num_deleted":"0","num_feature":"7","num_nodes":"31","size_leaf_vector":"1"}},{"base_weights":[-2.6583495E-3,2.1487603E-1,-3.7918764E-1,3.7022898E-1,-2.6587138E-3,-1.2750721E-1,-5.7894474E-1,4.9410722E-1,1.4110577E-1,1.1031571E-1,-2.184205E-1,5.5417856E-3,-2.1250975E-1,-6.863153E-3,-6.8953985E-1,2.8773505E-2,1.14770355E-2,2.033362E-2,8.996352E-4,9.737973E-3,-9.355168E-3,-0E0,-1.444546E-2,-2.7500107E-3,1.0226959E-2,-0E0,-1.2104289E-2,-3.602302E-5,-3.6218073E-2],"categories":[],"categories_nodes":[],"categories_segments":[],"categories_sizes":[],"default_left":[0,0,0,0,0,0,0,0,0,0,0,0,0,0,0,0,0,0,0,0,0,0,0,0,0,0,0,0,0],"id":44,"left_children":[1,3,5,7,9,11,13,15,17,19,21,23,25,-1,27,-1,-1,-1,-1,-1,-1,-1,-1,-1,-1,-1,-1,-1,-1],"loss_changes":[6.9745865E1,1.8776329E1,1.4257732E1,7.6259003E0,5.5723724E0,2.055307E0,6.498493E0,2.7199974E0,3.0631275E0,3.6271343E0,1.676641E0,9.1400003E-1,8.1733036E-1,0E0,2.2887383E0,0E0,0E0,0E0,0E0,0E0,0E0,0E0,0E0,0E0,0E0,0E0,0E0,0E0,0E0],"parents":[2147483647,0,0,1,1,2,2,3,3,4,4,5,5,6,6,7,7,8,8,9,9,10,10,11,11,12,12,14,14],"right_children":[2,4,6,8,10,12,14,16,18,20,22,24,26,-1,28,-1,-1,-1,-1,-1,-1,-1,-1,-1,-1,-1,-1,-1,-1],"split_conditions":[5E0,5E0,5E0,4.3333335E0,4.918602E0,4.9745083E0,4.669233E0,4.5E0,3.9672763E0,5E0,4E0,4.3672986E0,3E0,-6.863153E-3,4.506278E0,2.8773505E-2,1.14770355E-2,2.033362E-2,8.996352E-4,9.737973E-3,-9.355168E-3,-0E0,-1.444546E-2,-2.7500107E-3,1.0226959E-2,-0E0,-1.2104289E-2,-3.602302E-5,-3.6218073E-2],"split_indices":[3,4,6,5,2,4,5,4,2,6,6,0,6,0,4,0,0,0,0,0,0,0,0,0,0,0,0,0,0],"split_type":[0,0,0,0,0,0,0,0,0,0,0,0,0,0,0,0,0,0,0,0,0,0,0,0,0,0,0,0,0],"sum_hessian":[8.447808E2,5.3244336E2,3.123375E2,3.1542105E2,2.170223E2,1.4362581E2,1.6871169E2,1.980411E2,1.1737994E2,1.3679346E2,8.0228836E1,4.731431E1,9.63115E1,3.8106102E1,1.3060558E2,1.4198778E2,5.6053333E1,3.0703333E1,8.6676605E1,1.1174861E2,2.5044846E1,1.6044626E1,6.4184204E1,2.940564E1,1.7908669E1,1.0032291E1,8.627921E1,1.0202583E1,1.2040299E2],"tree_param":{"num_deleted":"0","num_feature":"7","num_nodes":"29","size_leaf_vector":"1"}},{"base_weights":[4.385142E-3,3.5337895E-1,-2.2917372E-1,5.205863E-1,8.076593E-2,-3.5107322E-2,-5.1188743E-1,5.888726E-1,9.375221E-2,1.885402E-1,-5.7921898E-2,3.375908E-2,-8.253858E-3,-8.2798E-3,-6.019623E-1,3.0821268E-2,4.0325993E-3,-1.3040273E-3,1.5971849E-2,1.2309029E-2,-0E0,-1.7161373E-2,-0E0,9.660385E-3,-2.1235403E-3,7.3685977E-3,-9.786348E-3,-1.0321389E-2,-3.571184E-2],"categories":[],"categories_nodes":[],"categories_segments":[],"categories_sizes":[],"default_left":[0,0,0,0,0,0,0,0,0,0,0,0,0,0,0,0,0,0,0,0,0,0,0,0,0,0,0,0,0],"id":45,"left_children":[1,3,5,7,9,11,13,15,17,19,21,23,-1,25,27,-1,-1,-1,-1,-1,-1,-1,-1,-1,-1,-1,-1,-1,-1],"loss_changes":[6.919113E1,1.4353561E1,2.6494577E1,4.607811E0,2.3146515E0,3.0258725E0,7.870659E0,1.4528236E0,1.5441703E0,1.3089821E0,5.2031076E-1,2.670084E0,0E0,1.1824074E0,5.7260017E0,0E0,0E0,0E0,0E0,0E0,0E0,0E0,0E0,0E0,0E0,0E0,0E0,0E0,0E0],"parents":[2147483647,0,0,1,1,2,2,3,3,4,4,5,5,6,6,7,7,8,8,9,9,10,10,11,11,13,13,14,14],"right_children":[2,4,6,8,10,12,14,16,18,20,22,24,-1,26,28,-1,-1,-1,-1,-1,-1,-1,-1,-1,-1,-1,-1,-1,-1],"split_conditions":[4.3333335E0,4.3333335E0,5E0,4.3106575E0,5E0,4.934039E0,4.669233E0,4.955448E0,4.0520296E0,5E0,3.0155332E0,4E0,-8.253858E-3,4.669233E0,5E0,3.0821268E-2,4.0325993E-3,-1.3040273E-3,1.5971849E-2,1.2309029E-2,-0E0,-1.7161373E-2,-0E0,9.660385E-3,-2.1235403E-3,7.3685977E-3,-9.786348E-3,-1.0321389E-2,-3.571184E-2],"split_indices":[5,3,0,0,2,2,3,1,1,6,1,6,0,5,6,0,0,0,0,0,0,0,0,0,0,0,0,0,0],"split_type":[0,0,0,0,0,0,0,0,0,0,0,0,0,0,0,0,0,0,0,0,0,0,0,0,0,0,0,0,0],"sum_hessian":[8.4309344E2,3.4116827E2,5.0192514E2,2.0614922E2,1.3501906E2,3.02728E2,1.9919717E2,1.7323157E2,3.291766E1,8.38161E1,5.1202953E1,1.8933015E2,1.13397835E2,3.381746E1,1.6537971E2,1.5865137E2,1.4580199E1,1.6634157E1,1.6283504E1,6.8937E1,1.4879104E1,4.4455132E0,4.675744E1,6.873118E1,1.20598976E2,1.2864825E1,2.0952633E1,4.307166E1,1.2230805E2],"tree_param":{"num_deleted":"0","num_feature":"7","num_nodes":"29","size_leaf_vector":"1"}},{"base_weights":[-3.5928413E-2,2.795595E-1,-3.0242664E-1,4.7086692E-1,3.0886224E-2,-1.815212E-2,-4.686822E-1,5.5698514E-1,-0E0,2.937865E-1,-3.2812025E-2,-2.6848593E-1,8.028204E-2,-1.1254145E-1,-5.6826144E-1,3.0080901E-2,-0E0,1.32430475E-2,-3.735584E-3,1.9604059E-2,-0E0,-1.974195E-2,-0E0,-0E0,-1.5241307E-2,1.2689346E-2,-3.8851807E-3,-9.812067E-3,-0E0,-0E0,-2.8552575E-2],"categories":[],"categories_nodes":[],"categories_segments":[],"categories_sizes":[],"default_left":[0,0,0,0,0,0,0,0,0,0,0,0,0,0,0,0,0,0,0,0,0,0,0,0,0,0,0,0,0,0,0],"id":46,"left_children":[1,3,5,7,9,11,13,15,17,19,21,23,25,27,29,-1,-1,-1,-1,-1,-1,-1,-1,-1,-1,-1,-1,-1,-1,-1,-1],"loss_changes":[7.0160225E1,1.6983599E1,2.0538559E1,7.700577E0,3.3917758E0,4.6913414E0,8.582615E0,3.956707E0,1.0285925E0,7.890353E-1,1.2443752E0,8.9689374E-1,3.7336533E0,7.4759084E-1,1.1672668E0,0E0,0E0,0E0,0E0,0E0,0E0,0E0,0E0,0E0,0E0,0E0,0E0,0E0,0E0,0E0,0E0],"parents":[2147483647,0,0,1,1,2,2,3,3,4,4,5,5,6,6,7,7,8,8,9,9,10,10,11,11,12,12,13,13,14,14],"right_children":[2,4,6,8,10,12,14,16,18,20,22,24,26,28,30,-1,-1,-1,-1,-1,-1,-1,-1,-1,-1,-1,-1,-1,-1,-1,-1],"split_conditions":[4.9632626E0,4.3333335E0,4.450874E0,4.662872E0,3.9187334E0,3.6754036E0,4.9345527E0,4.6511726E0,3.3457174E0,4.007175E0,3.5131083E0,2.7476847E0,4.3370075E0,4.3672986E0,2.0397604E0,3.0080901E-2,-0E0,1.32430475E-2,-3.735584E-3,1.9604059E-2,-0E0,-1.974195E-2,-0E0,-0E0,-1.5241307E-2,1.2689346E-2,-3.8851807E-3,-9.812067E-3,-0E0,-0E0,-2.8552575E-2],"split_indices":[4,5,5,3,2,5,1,0,5,0,4,0,3,0,2,0,0,0,0,0,0,0,0,0,0,0,0,0,0,0,0],"split_type":[0,0,0,0,0,0,0,0,0,0,0,0,0,0,0,0,0,0,0,0,0,0,0,0,0,0,0,0,0,0,0],"sum_hessian":[8.3119635E2,3.7714737E2,4.5404898E2,2.0792584E2,1.6922153E2,1.7255168E2,2.8149728E2,1.7303233E2,3.4893517E1,3.8166847E1,1.3105467E2,5.3769276E1,1.1878241E2,6.653353E1,2.1496376E2,1.562246E2,1.6807728E1,1.1033193E1,2.3860323E1,2.5482298E1,1.268455E1,7.3757386E0,1.2367893E2,3.6322155E0,5.0137062E1,6.1939312E1,5.6843098E1,3.964428E1,2.688925E1,2.3623264E0,2.1260143E2],"tree_param":{"num_deleted":"0","num_feature":"7","num_nodes":"31","size_leaf_vector":"1"}},{"base_weights":[1.6939487E-2,2.685738E-1,-2.2977358E-1,4.757972E-1,1.22685306E-1,-4.988748E-2,-4.5424193E-1,5.320554E-1,-0E0,-3.755253E-2,2.0657112E-1,1.6214175E-2,-7.636831E-2,-0E0,-5.1972926E-1,2.8488744E-2,-0E0,-4.6417437E-2,1.6647236E-2,1.6648164E-3,-1.11145675E-2,1.4703235E-2,-0E0,-0E0,-6.611402E-3,-0E0,-2.9120157E-2],"categories":[],"categories_nodes":[],"categories_segments":[],"categories_sizes":[],"default_left":[0,0,0,0,0,0,0,0,0,0,0,0,0,0,0,0,0,0,0,0,0,0,0,0,0,0,0],"id":47,"left_children":[1,3,5,7,9,11,13,15,17,19,21,-1,23,-1,25,-1,-1,-1,-1,-1,-1,-1,-1,-1,-1,-1,-1],"loss_changes":[5.169612E1,1.1287546E1,1.5753323E1,3.582138E0,3.7277923E0,1.9023175E0,5.784683E0,3.8697128E0,6.351465E0,1.4457066E0,2.8090882E0,0E0,8.66258E-1,0E0,4.6741943E0,0E0,0E0,0E0,0E0,0E0,0E0,0E0,0E0,0E0,0E0,0E0,0E0],"parents":[2147483647,0,0,1,1,2,2,3,3,4,4,5,5,6,6,7,7,8,8,9,9,10,10,12,12,14,14],"right_children":[2,4,6,8,10,12,14,16,18,20,22,-1,24,-1,26,-1,-1,-1,-1,-1,-1,-1,-1,-1,-1,-1,-1],"split_conditions":[4.6666665E0,4.5E0,5E0,4.955448E0,3.6754036E0,3.3680203E0,4.0520296E0,4.669233E0,3.0155332E0,4.013952E0,4.28017E0,1.6214175E-2,4.911902E0,-0E0,4.669233E0,2.8488744E-2,-0E0,-4.6417437E-2,1.6647236E-2,1.6648164E-3,-1.11145675E-2,1.4703235E-2,-0E0,-0E0,-6.611402E-3,-0E0,-2.9120157E-2],"split_indices":[5,4,0,1,5,3,1,3,2,2,5,0,4,0,3,0,0,0,0,0,0,0,0,0,0,0,0],"split_type":[0,0,0,0,0,0,0,0,0,0,0,0,0,0,0,0,0,0,0,0,0,0,0,0,0,0,0],"sum_hessian":[8.28744E2,4.1423346E2,4.1451056E2,1.6420247E2,2.5003099E2,2.3597803E2,1.7853253E2,1.436944E2,2.0508066E1,7.7982025E1,1.7204897E2,9.512475E0,2.2646556E2,2.1063461E1,1.5746907E2,1.3460815E2,9.086254E0,3.5146368E0,1.699343E1,4.952083E1,2.8461197E1,1.1461561E2,5.7433357E1,1.0449832E2,1.2196723E2,2.1033812E1,1.3643526E2],"tree_param":{"num_deleted":"0","num_feature":"7","num_nodes":"27","size_leaf_vector":"1"}},{"base_weights":[-0E0,3.047101E-1,-2.0996872E-1,4.9796927E-1,-0E0,-5.8510296E-2,-4.3663785E-1,5.383342E-1,-0E0,-1.9173357E-1,1.5833312E-1,-0E0,-2.3242633E-1,-0E0,-5.03835E-1,2.9748006E-2,1.0959407E-2,-0E0,-1.7242434E-2,-1.7032829E-4,9.76711E-3,1.6448203E-2,-1.6705821E-3,4.312437E-3,-1.6328024E-2,-8.827852E-3,5.3757E-3,-5.190815E-3,-2.7654102E-2],"categories":[],"categories_nodes":[],"categories_segments":[],"categories_sizes":[],"default_left":[0,0,0,0,0,0,0,0,0,0,0,0,0,0,0,0,0,0,0,0,0,0,0,0,0,0,0,0,0],"id":48,"left_children":[1,3,5,7,9,11,13,15,-1,17,19,21,23,25,27,-1,-1,-1,-1,-1,-1,-1,-1,-1,-1,-1,-1,-1,-1],"loss_changes":[5.29669E1,1.8979124E1,1.5728075E1,3.6387482E0,4.1276035E0,2.813551E0,5.490902E0,1.8412476E0,0E0,1.2287328E0,8.972666E-1,2.2862384E0,2.7267702E0,5.6001765E-1,2.147377E0,0E0,0E0,0E0,0E0,0E0,0E0,0E0,0E0,0E0,0E0,0E0,0E0,0E0,0E0],"parents":[2147483647,0,0,1,1,2,2,3,3,4,4,5,5,6,6,7,7,9,9,10,10,11,11,12,12,13,13,14,14],"right_children":[2,4,6,8,10,12,14,16,-1,18,20,22,24,26,28,-1,-1,-1,-1,-1,-1,-1,-1,-1,-1,-1,-1,-1,-1],"split_conditions":[4.3333335E0,4.9745083E0,5E0,5E0,3.6754036E0,5E0,4.506278E0,4.3158593E0,-0E0,3.2449179E0,3.0155332E0,2.9875395E0,4.015202E0,4.015202E0,4.669233E0,2.9748006E-2,1.0959407E-2,-0E0,-1.7242434E-2,-1.7032829E-4,9.76711E-3,1.6448203E-2,-1.6705821E-3,4.312437E-3,-1.6328024E-2,-8.827852E-3,5.3757E-3,-5.190815E-3,-2.7654102E-2],"split_indices":[5,4,0,6,5,6,4,0,0,5,1,2,4,4,5,0,0,0,0,0,0,0,0,0,0,0,0,0,0],"split_type":[0,0,0,0,0,0,0,0,0,0,0,0,0,0,0,0,0,0,0,0,0,0,0,0,0,0,0,0,0],"sum_hessian":[8.2401917E2,3.3739154E2,4.8662766E2,2.0201248E2,1.3537904E2,2.9802774E2,1.8859991E2,1.8521297E2,1.6799515E1,5.5539318E1,7.983973E1,2.2833743E2,6.969032E1,2.5661974E1,1.6293794E2,1.486637E2,3.6549274E1,2.9472034E1,2.6067284E1,5.6953983E0,7.414433E1,1.719826E1,2.1113916E2,1.1469325E1,5.8220997E1,9.954318E0,1.5707656E1,2.4366447E1,1.3857149E2],"tree_param":{"num_deleted":"0","num_feature":"7","num_nodes":"29","size_leaf_vector":"1"}},{"base_weights":[-0E0,3.254057E-1,-1.8260339E-1,5.158944E-1,1.1621956E-1,-3.931306E-2,-3.7271813E-1,6.022571E-1,-0E0,4.3636644E-1,4.471411E-2,8.4350854E-2,-1.4027739E-1,-7.330555E-2,-4.7416946E-1,3.3639226E-2,-1.5510078E-2,1.9936958E-2,-1.4374644E-2,2.687213E-2,-0E0,